
\data\
ngram 1=9545

\1-grams:
-2.629554	!
-4.257943	!.
-4.257943	!ahaM
-4.257943	!ajYAːnAːdaneːna
-2.990771	,
-4.257943	,AːgAːmini
-4.257943	,AːkAːza
-4.257943	,DanaganDaH,DanaprIːtiH,Danarucizca
-4.257943	,Dvan
-4.257943	,aBiyuktasya
-4.257943	,anyAːn
-4.257943	,anyataH
-4.257943	,aparAːDasya
-4.257943	,api
-4.257943	,asmAːkaM
-4.257943	,ayameːva
-4.257943	,bawadeːzeː
-4.257943	,ca
-4.257943	,caSakAːH
-4.257943	,dIːpakoː
-4.257943	,eːkAːkIː
-4.257943	,eːnameːva
-4.257943	,eːneːnEːva
-4.257943	,kaTaM
-4.257943	,kaTam
-4.257943	,kadAːcit
-4.257943	,kamaNxalu:
-4.257943	,loːkAːnAːM
-4.257943	,mAːnasammAːnAːhagwkAːrAːdin
-4.257943	,manyeː
-4.257943	,nEːvaM
-4.257943	,na
-4.257943	,neːtreː
-4.257943	,niSVAːyAːH,parizrameːNa
-4.257943	,pavitraM
-4.257943	,pavitraM,
-4.257943	,prajAːH
-4.257943	,pratizvasanam
-4.257943	,satyapriyaH,
-4.257943	,svAːdayutaM
-4.257943	,svAːgatam
-4.257943	,svajaneːSu,saMsAːreː
-4.257943	,tAːsAːm
-4.257943	,tasmin
-4.257943	,tasyAːH
-4.257943	,tasya
-4.257943	,tvaM
-4.257943	,tvam
-4.257943	,uta
-4.257943	,vAːhanakrayaNam,
-4.257943	,vadatu
-4.257943	,vastrAːNi
-4.257943	,viBUːtiH
-4.257943	,vijYAːpikAː
-4.257943	,vinayIː,sarvakAːriyoːdyoːgIː
-4.257943	,yadAː
-4.257943	,yantrazAːlAːH
-4.257943	,yasmin
-4.257943	,zakuM
-2.441701	-
-4.257943	-AːBaraNakAːntyAː
-4.257943	-Aːm,
-4.257943	-AːtmanAː
-4.257943	-BadrOː
-4.081851	-BagavAːn
-4.081851	-BavAːn
-4.257943	-BavatIː
-4.257943	-BoːH
-4.257943	-DarmAːvatAːreːNa
-4.257943	-PalAːni
-4.257943	-PrAːMsa
-4.257943	-aboːDa
-4.257943	-ahamasya
-4.257943	-aneːna
-4.257943	-apRcCat
-4.257943	-arjeːnqIːnAː-
-4.257943	-atyuttamasya
-4.257943	-ayyaramahoːdayasya
-4.257943	-brAːjIːla
-4.257943	-dulIːcandaH
-4.257943	-eːSAː
-4.257943	-eːkeːnEːva
-4.257943	-eːtasya
-4.257943	-gawgAːmAːtuH
-4.257943	-guruvarya
-4.257943	-hAːlEːNxa
-4.257943	-hAːlEːNxa-
-4.081851	-heː
-4.257943	-hiraNyakoː
-4.257943	-iqalIː
-4.257943	-ityeːtAːn
-4.257943	-kaTAː.
-4.257943	-kiYcit
-4.257943	-kim
-4.257943	-mRgarAːja
-4.257943	-mahoːdayAː
-4.257943	-mama
-4.257943	-muYca
-4.257943	-pAːdAːGAːteːSu
-4.257943	-pEːqiqa-nAːmakeːna
-4.257943	-praBoː
-4.257943	-prasIːdatu
-4.257943	-pulisa-seːvAːyAːM
-4.257943	-puraskAːrasya
-4.257943	-ravIːndranAːTaqEːgoːraH,
-4.257943	-razmiH
-4.257943	-saH
-4.257943	-saMmAːnaM
-4.257943	-sarvaM
-4.257943	-sarvam
-4.257943	-sunIːtiH
-4.257943	-tAːn
-4.257943	-teːna
-4.257943	-trizUːla-pRTvIːtyAːdIːni
-4.257943	-vatsa
-4.081851	-yadi
-4.257943	-zrIːviVValaH
-4.257943	-zulkapradAːnasya
-1.200657	.
-4.257943	..
-1.081851	</s>
-99	<s>
-4.081851	AːDunikaM
-4.257943	AːDunikatAːsparDAːyAːM
-4.257943	AːDyAːmikasatkAːrasya
-4.081851	AːGAːtaH
-4.257943	AːGrAːta:
-4.257943	AːGrAːtuM
-4.257943	AːH
-4.081851	AːMglIːyAːH
-4.257943	AːMglaBAːSAːyAːH
-4.257943	AːPa-
-4.257943	AːatadAː
-4.257943	AːcAːraH,
-4.257943	AːcAːraviSayeː
-4.257943	AːcAːryamAːNam
-4.257943	AːcAːryapadamalamakaroːt
-4.257943	AːcAːryapadeː
-4.257943	AːcAːryeː!
-3.956912	AːcCAːditAːni
-4.257943	AːcCaditAː
-4.257943	AːcCaditAːni
-4.257943	AːcCannaH
-4.257943	AːcCidya
-4.257943	AːcakrAːma
-4.257943	AːcarAːmi
-4.257943	AːcaraNamapi
-4.257943	AːcarantIː
-4.257943	Aːcarati
-4.257943	Aːcaritam
-3.780821	AːdAːya
-3.956912	AːdOː
-4.257943	Aːdaroː
-4.257943	Aːdaroː$sti
-4.257943	AːdarzAːn
-4.081851	AːdarzavAːkyam
-4.081851	AːdayaH
-4.257943	AːdeːSqavyaH
-4.257943	AːdeːzavizeːSaM
-4.257943	Aːdi
-4.257943	AːdiSqam
-3.860003	AːdiSqavAːn
-4.257943	AːdiSqavatIː
-4.257943	Aːdideːza
-4.257943	Aːdideːza.
-4.257943	AːdikaM
-4.257943	Aːdikam
-4.257943	AːdivyavasTAː
-4.257943	AːdizaktiH
-3.956912	Aːdizat
-3.655882	AːgacCAːmi
-4.257943	AːgacCAːmi.
-3.655882	AːgacCa
-4.257943	AːgacCa,
-4.081851	AːgacCan
-3.655882	AːgacCanti
-3.655882	AːgacCat
-4.257943	AːgacCatAːm
-4.257943	AːgacCata
-3.780821	AːgacCati
-4.257943	AːgacCatu
-4.081851	AːgacCeːt
-4.081851	AːgacCtu
-4.257943	AːgacaCati
-4.257943	Aːgacca
-4.257943	Aːgacca,
-4.257943	AːgamanAːt
-4.257943	Aːgamana
-4.081851	Aːgamanam
-4.257943	AːgamanasamayaH
-4.081851	Aːgamanasya
-4.257943	Aːgamaneː
-4.257943	Aːgamaneːna
-3.780821	AːgamiSyAːmi
-3.713874	AːgamiSyanti
-4.257943	AːgamiSyanti.
-3.780821	AːgamiSyati
-4.257943	AːgaminyAːM
-4.081851	Aːgantavyam
-4.257943	AːgantuM
-4.257943	Aːgantum
-4.081851	AːgatAː
-4.257943	AːgatAː:
-4.257943	AːgatAːH
-4.257943	AːgatAːH-sarvoːttamaH
-4.257943	AːgatAːM
-4.081851	AːgatAːn
-4.257943	AːgatAːyAːH
-4.257943	Aːgata
-3.479791	AːgataH
-4.081851	AːgataH.
-4.081851	AːgataM
-3.860003	Aːgatam
-4.257943	Aːgatasya
-3.655882	AːgatavAːn
-4.081851	AːgatavAːn.
-4.081851	AːgatavantaH
-4.257943	AːgatavatIː
-4.257943	Aːgatoː$si
-4.081851	Aːgatoː$smi
-3.236753	Aːgatya
-4.081851	AːgrahaH
-4.257943	AːhAː
-4.257943	AːhAːraM
-4.257943	AːhUːtavatIː
-3.780821	AːhUːya
-4.257943	AːharitavAːn
-4.081851	AːhataH
-4.257943	AːhataM
-4.257943	Aːhatoː
-4.257943	AːhlAːditaM
-4.257943	AːhvAːtuM
-4.081851	Aːhvayat
-4.081851	AːjAːda
-3.780821	AːjAːdaH
-4.257943	AːjIːvanaM
-4.257943	AːjYAːM
-4.257943	AːjYAːnusAːraM
-4.257943	AːjYAːpaya
-4.081851	AːjYAːpayati
-4.257943	AːjYAːpitAːH-pUːrayata
-4.257943	AːjYayAː
-4.257943	AːkAːrAːH,
-4.257943	AːkAːrasadRzaM
-4.257943	AːkAːrikAː
-4.257943	AːkAːrikAːzabdaM
-3.956912	AːkAːza
-4.257943	AːkAːza,
-3.780821	AːkAːzaH
-4.257943	AːkAːzam
-4.257943	AːkAːzamaNxalasya,
-4.257943	AːkAːzasya
-3.860003	AːkAːzeː
-4.257943	AːkRSqAː
-4.257943	AːkRSqaH
-4.257943	AːkRSya
-4.257943	AːkRtiH
-4.257943	AːkRtyAː
-4.257943	AːkSeːpaH
-4.257943	AːkSiptavanta:
-4.257943	AːkarNayat
-3.860003	AːkarNya
-4.257943	AːkarSaNasya
-4.257943	AːkarSakaM
-4.257943	AːkarSat
-4.257943	AːkarSeːNa
-4.257943	AːkrAːman
-4.081851	AːkrAːntaH
-4.257943	AːkrAːntaH,
-4.257943	AːkrAːntoː$Bavat
-4.257943	AːkrAːntoː$Bavat.
-4.257943	AːkrAːntoː$si
-4.257943	AːkramiSyanti
-4.257943	AːksIːjana-nAːmakasya
-4.257943	AːkuYcya,
-4.257943	AːlAːpa-mAːtram
-4.257943	AːlAːpamAːtram
-4.257943	AːlAːpaprayatnameːva
-4.081851	AːlayaH
-4.257943	Aːliwgati.
-4.257943	Aːliwgaya
-4.257943	AːliwgituM
-4.257943	AːloːcakaH
-4.081851	Aːloːcitam
-3.860003	AːloːkaH
-4.081851	AːloːkaM
-4.081851	Aːloːkasya
-4.081851	Aːloːkayan
-4.081851	Aːm
-4.081851	Aːm,
-4.257943	AːmAːrgaM
-4.257943	AːmRzya-
-4.257943	AːmantraNam
-4.257943	AːmrAːNAːm
-4.257943	AːmraPalAːni
-4.081851	Aːmram
-4.257943	AːmravRkSam
-4.257943	AːmravRkSoː$api
-4.257943	AːmreːNa-.
-4.257943	AːnAːyayiSyAːmi
-4.257943	AːnAːyya
-4.257943	AːnDrapradeːzeː
-4.257943	AːnIːtAː.
-4.257943	AːnIːtAːH.
-4.257943	AːnIːtAːni
-4.257943	AːnIːtaM
-4.257943	AːnIːtam
-4.081851	AːnIːtavAːn
-4.081851	AːnIːtavantaH
-4.257943	AːnIːtavatIː
-4.081851	AːnIːya
-4.257943	AːnIːya,
-4.257943	AːnIːyantAːm
-4.257943	AːnIːyanteː.
-3.860003	AːnIːyateː
-4.257943	Aːnanda:
-4.257943	Aːnandasya
-4.257943	Aːnandayati
-4.257943	Aːnandeːna
-4.257943	AːnanditaH
-4.257943	AːnayAːmaH
-4.257943	AːnayAːmi
-4.257943	AːnayAːni
-4.257943	Aːnaya
-4.257943	Aːnaya.
-4.257943	AːnayanAːya
-4.257943	Aːnayantu
-4.257943	Aːnayat
-4.257943	Aːnayati
-4.257943	Aːnayatu.
-4.257943	AːndoːlanaM
-4.257943	Aːndoːlanamapi
-4.257943	Aːndoːlanasya
-4.257943	Aːndrapradeːzasya
-4.257943	AːneːSyAːmi
-4.257943	AːneːtavyaH.
-4.257943	Aːneːtum
-4.257943	Aːnqan
-4.257943	AːnukUːlyAːni
-4.257943	AːpaNAːnAːM
-4.257943	AːpaNAːnAːm
-3.956912	AːpaNAːt
-4.257943	AːpaNaGRtasya
-4.257943	AːpaNaM
-4.257943	AːpaNeː
-4.257943	Aːpadyateː
-4.257943	AːpannAː
-4.257943	Aːpatitam
-4.257943	AːplAːvitam
-4.081851	AːplutaH
-4.257943	Aːpnoːti,
-4.257943	AːpraSquM
-4.257943	AːrAːDanAː.
-4.081851	AːrAːDanaM
-4.257943	AːrAːDanasya
-4.257943	AːrAːDyAː
-4.257943	AːrAːtrikam
-4.257943	AːrTikAːnudAːnaM
-4.257943	AːrTika-
-4.257943	AːrTika-sAːhAːyyeːna
-4.257943	AːrTikasamasyAː
-4.257943	AːrTiki
-4.257943	AːrUːNeː!
-4.257943	AːrUːNi
-3.51758	AːrUːNiH
-4.081851	AːrUːNiM
-3.860003	AːrUːNim
-4.257943	AːraBanta
-4.081851	AːraBata
-4.081851	AːraBya
-4.257943	AːrabDaM
-4.257943	AːrabDasya
-4.081851	AːrabDavAːn
-4.257943	AːrabDavAːn.
-4.257943	AːrabDavatIː.
-4.257943	AːrakSakaH
-4.257943	AːrakSakaM
-4.257943	AːrakSakamAːhUːtavAːn
-4.257943	AːramBaH
-3.956912	AːramBaM
-4.257943	AːramBadineːSu
-4.257943	AːratyAː:
-4.257943	Aːrc
-4.081851	AːrdraM
-4.081851	AːrdramaBavat
-4.257943	Aːroːgyam
-4.081851	AːroːhAːmi
-4.257943	Aːroːha
-4.081851	Aːroːhat
-4.257943	Aːroːhitum
-4.257943	AːroːpaNIːyAːH
-4.257943	AːroːpaNaM
-4.257943	Aːroːpitam
-4.257943	Aːroːpya
-4.257943	AːrtEːH
-4.081851	Aːruhya
-4.257943	AːryaBaqqa-jagadIːzacandrabasu
-4.081851	Aːryaputra
-4.257943	Aːryaputra!
-4.257943	AːryaputraH
-4.081851	AːryasamAːjaH
-3.956912	AːryasamAːjasya
-4.257943	Aːryeː
-4.257943	AːsIːH
-4.257943	AːsIːd
-4.257943	AːsIːnaH
-2.40061	AːsIːt
-3.382881	AːsIːt.
-4.257943	AːsTAːnasya
-4.257943	AːsaktAː:
-3.60473	Aːsam
-3.956912	Aːsam.
-3.382881	Aːsan
-4.257943	Aːsan!
-4.257943	Aːsan,
-4.257943	Aːsan-eːkaM
-3.860003	Aːsan.
-4.257943	AːsanAːt
-4.257943	AːsanasTaM
-4.257943	Aːsanda:
-4.081851	Aːsaneː
-4.257943	Aːsanneː
-4.257943	AːstAːM
-3.558972	AːstAːm
-4.257943	AːstAːm.
-4.257943	Aːsta
-4.081851	AːstaraNaM
-4.257943	AːstaraNam
-4.257943	Aːsva
-4.257943	Aːsva.
-4.257943	Aːsvadayam
-4.257943	AːtRpti
-4.257943	AːtaYcanaM
-3.655882	AːtmAːnaM
-4.257943	AːtmAːnameːva
-4.081851	AːtmIːyEːH
-4.257943	Aːtma-pakSam
-4.257943	AːtmacintanaM
-4.257943	Aːtmacintanamakaroːt
-3.956912	Aːtmagatam
-4.257943	AːtmajYAːnAːya
-4.081851	AːtmakaTAː
-4.257943	AːtmakaTAː.
-4.257943	AːtmakaTAːm
-4.257943	AːtmanAː
-3.956912	AːtmanaH
-4.257943	AːtmapakSam
-4.257943	AːtmarUːpeːNa
-4.257943	AːtmarakSAːM
-4.257943	AːtmarakSAːyEː
-4.257943	AːtmarakSaNAːrTaM
-4.257943	AːtmarakSaNAːya
-4.257943	AːtmasuKAːya
-4.257943	AːtmaviSayakapraznAːn
-4.257943	AːtmavizvAːsaH,
-4.257943	AːtmavizvAːsazca
-3.956912	AːvAːByAːM
-3.780821	AːvAːM
-4.257943	AːvAːm
-4.081851	AːvAːsaH
-4.081851	AːvRtya
-4.257943	AːvaM
-4.257943	AːvaliH
-4.257943	AːvaraNaM
-4.257943	Aːvaraya
-4.257943	AːvasasamIːpasTAːH
-4.257943	AːvatavAːn
-3.655882	AːvayoːH
-4.257943	AːvayoːHvismaya:
-4.257943	Aːvayoːrapi
-4.257943	AːvazyakaM
-4.257943	Aːvazyakam
-4.257943	AːvazyakatAː
-4.257943	AːvazyakatAːH
-4.257943	Aːvazyaki
-4.257943	AːveːSqayam.
-4.257943	AːviSkAːrasya
-4.081851	AːviSkAːreːNa
-4.257943	AːviSkAːreːSu
-4.257943	AːviSqaH
-4.257943	AːvirBavati.
-4.257943	AːvirBaveːt
-4.257943	AːwglaBAːSAːyAːM
-4.081851	AːwglaH
-4.257943	AːwgladeːzaM
-4.257943	AːwglanyAːyaDIːzaH
-4.257943	AːwglasEːnikEːH
-4.081851	AːwglazAːsanaM
-4.257943	AːwglazAːsanamapi
-4.081851	AːwglazAːsanasya
-4.257943	AːyAːntaM
-4.257943	AːyAːsaM
-4.081851	AːyAːti
-4.257943	AːyAːti,
-3.956912	AːyaH
-4.257943	AːyaM
-4.257943	AːyakaraviBAːgeː
-4.257943	AːyatalalAːqaH,
-4.081851	AːyoːjitAːH
-4.257943	Aːyoːjitam
-4.257943	AːyoːjitavAːn
-4.257943	AːyuDAːni
-4.257943	AːyuDEːH
-4.257943	AːyurveːdAːdayaH
-4.257943	AːyurvidyAː
-4.081851	AːzAː
-4.257943	AːzAːBawgaM
-4.257943	AːzayaH
-3.956912	AːzcaryaM
-4.257943	AːzcaryacakitaH
-4.257943	AːzcaryacakitaM
-4.081851	Aːzcaryam
-4.257943	AːzcaryamAːzcaryam
-4.257943	AːzcaryeːNa
-4.257943	AːzliSya
-3.956912	AːzramAːt
-4.257943	AːzramaH,
-4.257943	AːzramaM
-4.257943	AːzramamagacCat
-3.51758	Aːzrameː
-4.257943	AːzrameːSu
-4.257943	Aːzramoː
-4.257943	AːzrayaM
-4.257943	AːzrayaNiyaH
-4.257943	Aːzrayati
-4.257943	AːzritaM
-4.257943	AːzritavAːn
-4.081851	Aːzritya
-4.257943	AːzuvarDanazIːlAːH
-4.257943	AːzvinamAːseː
-4.257943	BAːNxAːreː
-4.081851	BAːSAːsu
-4.257943	BAːSaNam
-4.257943	BAːSaNeːSu
-4.257943	BAːSamAːNaH
-4.257943	BAːSateː
-4.257943	BAːSitavAːn
-4.257943	BAːSyam
-4.257943	BAːaratavarSasya
-4.257943	BAːdrOː
-4.257943	BAːgAːH
-4.081851	BAːgAːn
-4.257943	BAːgIːrAːaTIː
-4.081851	BAːgIːraTIː
-4.081851	BAːgaH
-4.081851	BAːgaM
-4.257943	BAːgavahanaM
-4.081851	BAːgeːSu
-4.081851	BAːgyaM
-4.257943	BAːgyavAːn
-4.257943	BAːgyavataH
-4.257943	BAːgyavazAːt
-4.257943	BAːgyeːna
-4.257943	BAːnukoːSanAːyakam
-4.257943	BAːqakAːrTam
-3.860003	BAːratIːyAː
-3.860003	BAːratIːyAːH
-4.257943	BAːratIːyOː
-4.257943	BAːratIːya
-4.257943	BAːratIːyaBAːSAːNAːM
-4.257943	BAːratIːyaH
-4.257943	BAːratIːyaM
-4.257943	BAːratIːyamahilAː
-4.257943	BAːratIːyasEːnikAːH
-4.081851	BAːratIːyasaMskRteːH
-4.257943	BAːrata-dveːzUːnyamdveːzUːnyam
-4.257943	BAːrataH
-3.780821	BAːrataM
-4.257943	BAːratadeːzaH
-3.956912	BAːratadeːzasya
-4.081851	BAːratam
-4.257943	BAːratamAːgatya
-3.445029	BAːratasya
-4.257943	BAːratavAːsiByaH
-4.257943	BAːratavarSAːd
-4.257943	BAːratavarSAːt
-4.257943	BAːratavarSaM
-3.713874	BAːratavarSasya
-3.956912	BAːrateː
-4.257943	BAːrati
-4.257943	BAːratyavarSasya
-4.257943	BAːrayutAːM
-4.257943	BAːroːttoːlakeːna
-4.257943	BAːroːttoːlanaprasaMgeː
-4.081851	BAːroːttoːlanasya
-3.956912	BAːroːttoːlaneː
-4.257943	BAːrtIːyaKAːdyanigameː
-4.081851	BAːryAː
-4.257943	BAːryAː,
-4.257943	BAːryAːyAː
-3.51758	BAːsurakaH
-4.257943	BAːsurakam
-4.257943	BAːsurakameːkasya
-4.081851	BAːsurakoː$vadat
-4.257943	BAːsvantaM
-4.257943	BAːtAː
-4.257943	BAːtaroː
-4.257943	BAːti
-4.257943	BAːti.
-4.257943	BAːtreː
-4.257943	BAːvamagnaH
-3.860003	BAːvanAː
-4.257943	BAːvanAːH
-4.257943	BAːvanAːM
-4.257943	BAːvanAːm
-4.257943	BAːvanAːyAːH
-4.257943	BAːvasya
-4.257943	BAːvayAːmi
-4.081851	BAːvayan
-4.081851	BAːvayati
-4.257943	BAːveːna
-4.257943	BAːvini
-4.257943	BAːvinyAːH
-4.257943	BIːSaNaH
-4.257943	BIːSaNaM
-4.257943	BIːmaseːnaH
-4.257943	BIːtAː
-4.081851	BIːtaH
-4.257943	BIːtiM
-4.257943	BIːtoː$smi.
-4.257943	BIːtyAː
-4.081851	BRzaM
-4.257943	BRzamapIːxayat.
-4.257943	BUːBAːgaM
-4.257943	BUːBAːgam
-4.257943	BUːSaNam
-4.257943	BUːSayanti
-4.257943	BUːSitaH
-4.257943	BUːditi
-4.257943	BUːgoːlasya
-4.257943	BUːkampaH
-4.257943	BUːloːkam
-4.257943	BUːloːkeː
-3.51758	BUːmOː
-4.257943	BUːmeːH,
-3.860003	BUːmiH
-4.257943	BUːmikAː
-4.257943	BUːmipatitAːM
-4.257943	BUːmisToː$pi
-4.257943	BUːpAːnAːM
-4.257943	BUːpateː
-4.257943	BUːri
-4.257943	BUːtAːni.
-4.257943	BUːtaBaviSyadvartanAːnaviSayAːn
-4.257943	BUːtaleː
-4.257943	BUːtapUːrvaH
-4.257943	BUːtasya
-3.479791	BUːtvAː
-4.257943	BUːyaM
-4.257943	BaNitoː$si
-4.257943	BaYjitAːnAːM
-4.257943	BadrAːNi
-4.257943	BadramayUːraH.
-4.081851	BadramuKa
-3.956912	BagIːraTaH
-4.257943	BagatasiMhasuKadeːvaAːdayaH
-3.780821	BagavAːn
-4.081851	Bagavan
-4.081851	Bagavan!
-4.257943	BagavantaM
-4.081851	BagavatAː
-3.956912	BagavatIː
-4.081851	Bagavata:
-3.860003	BagavataH
-3.956912	Bagavati
-3.956912	Bagavatoː
-4.081851	BagavatprasAːdAːt.
-4.257943	BagavatyAːH
-4.257943	BaginIː
-4.257943	BaginyAːH
-4.257943	BaginyOː
-4.257943	BagnAː
-4.257943	BagnAːBavat
-3.956912	BagnaH
-4.257943	BagnaH.
-4.257943	BagnaM
-4.257943	Bagnam
-4.081851	Bagneː
-4.257943	BagnoːdyamaH
-4.081851	BajanaM
-4.257943	Bajanti
-4.081851	BakSayanti
-3.956912	BakSayiSyAːmi
-4.257943	BakSayiSyati
-4.257943	BakSitaH
-4.257943	BakSiyituM
-4.257943	BakSyaM
-4.257943	BaktAːH
-4.081851	Bakta
-4.257943	BaktapriyaH
-4.257943	BaktayAː
-4.257943	BaktiBAːveːn
-4.257943	BaktiH
-4.257943	BaktimatIː
-4.257943	BaktipUːravakaM
-4.257943	BaktivEːrAːgyAːdIːn
-4.257943	BallUːkaM
-4.081851	BarataH
-4.081851	BartaH!
-4.257943	BartaH.
-4.257943	BasmIːBUːtAːnAːM
-4.257943	BasmasAːt
-4.257943	BasurakaH
-4.257943	BavAːmaH.
-2.935723	BavAːn
-3.780821	BavAːn.
-3.860003	BavAːneːva
-4.257943	BavAːnna
-4.257943	Bava
-4.257943	Bava.
-4.081851	BavadBi:
-3.655882	BavadBiH
-4.257943	BavadBiH.
-4.257943	BavadIːyAː
-4.257943	BavadIːyavEːduSyasya
-4.257943	BavadantikaM
-4.257943	BavadapeːkSAːnusAːraM
-4.257943	BavanAːni
-4.257943	BavanaM
-4.257943	Bavanam
-4.257943	BavannikaqamAːhareːt.
-4.257943	BavantIːtyeːtat
-4.257943	Bavanta:
-3.860003	BavantaH
-4.257943	BavantaH.
-3.713874	BavantaM
-4.257943	Bavantam
-3.081851	Bavanti
-4.081851	Bavanti.
-3.956912	Bavantu
-4.081851	Bavantu.
-4.257943	Bavantyeːva
-3.328523	BavatAː
-4.257943	BavatAː!.
-4.257943	BavatAː.
-3.780821	BavatAːM
-4.257943	BavatAːm
-4.257943	BavatAːm.
-3.60473	BavatIː
-4.257943	BavatIː.
-4.257943	BavatIːByAːM
-4.257943	BavatIːm
-4.257943	Bavata:
-2.967908	BavataH
-4.081851	BavataH.
-3.956912	Bavateː
-4.257943	Bavateːti
-2.752792	Bavati
-4.081851	Bavati,
-3.860003	Bavati.
-4.081851	Bavatoː
-4.257943	Bavatti
-3.3037	Bavatu
-4.257943	Bavatu,
-4.257943	BavatyAː:
-4.081851	BavatyAːH
-4.257943	BavatyaH
-4.257943	BavatyaH.
-4.257943	Bavatyeːva
-3.780821	Baveːma
-3.111814	Baveːt
-4.081851	Baveːt,
-4.257943	Baveːyam
-4.081851	BaveːyuH
-4.257943	BaveːyuH.
-4.257943	BaviSyAːmaH
-4.257943	BaviSyAːmaH,
-4.081851	BaviSyAːmi
-4.081851	BaviSyanti
-4.257943	BaviSyanti.
-4.257943	BaviSyasi
-4.257943	BaviSyata:
-3.382881	BaviSyati
-3.860003	BaviSyati.
-4.257943	BavitavyaM
-4.257943	Bavitavyameːva
-4.257943	BavituM
-3.860003	Bavitum
-4.257943	BayAːd
-4.257943	BayAːkrAːntaM
-4.257943	BayAːkulAːnAːM
-4.257943	BayAːkulAːnAːm
-4.081851	BayAːt
-4.257943	BayAːvahaH
-4.081851	BayaBIːtAːH
-4.257943	BayaduHKasaMkuleː$smin
-3.713874	Bayam
-4.257943	BayawkaraH
-4.257943	BayawkaraM
-4.257943	BayeːnAːkrandat
-4.081851	Bayeːna
-4.081851	BeːdaH
-4.257943	BeːdaM
-4.257943	BeːdavicAːraH
-4.081851	Beːtavyam
-4.257943	Beːtavyam,
-4.257943	BiSagvaramaBimantraya
-3.956912	BikSAːM
-4.257943	BikSAːqanaM
-4.257943	BikSAːvRttyAː
-4.081851	BikSayAː
-3.956912	BikSukaH
-4.257943	BitAːH
-4.257943	BittikaM
-4.257943	Bittikam
-3.655882	Boː
-4.081851	Boː,
-4.257943	Boː:
-3.655882	BoːH
-4.257943	BoːH!
-4.257943	Boːgasya
-4.257943	Boːgeː
-4.257943	BoːjanAːdikaM
-4.081851	BoːjanAːnteː
-3.655882	BoːjanAːya
-3.713874	BoːjanaM
-4.257943	BoːjanamAːdAːya
-4.081851	Boːjanasamayeː
-4.081851	Boːjanasya
-4.257943	BoːjanaviSayeː
-4.081851	Boːjaneː
-4.257943	Boːjaneːna
-4.257943	BoːjanoːttaraM
-3.956912	BrAːtAː
-4.257943	BrAːtAː,
-4.257943	BrAːtRBAːvazca
-4.257943	BrAːtRBiH
-4.257943	BrAːtaH!
-3.860003	BrAːtaraH
-4.257943	BrAːtaroː
-4.257943	BramaNaM
-4.257943	BramaNam
-4.257943	BramaNeːnEːva
-4.257943	Bramanti
-4.257943	BramarAːH
-4.257943	Bramat
-4.257943	Bramati
-4.257943	BujawgaH
-4.257943	BuktvAː
-4.257943	ButAːni
-3.780821	CAːtrAːH
-4.257943	CAːtrAːH!
-4.257943	CAːtrAːNAːM
-4.257943	CAːtrAːNAːM,
-4.257943	CAːtrAːNAːm
-4.257943	CAːtrAːn
-4.257943	CAːtrOː
-4.257943	CAːtra:-
-4.081851	CAːtraH
-4.257943	CAːtraH-
-4.257943	CAːtrasawKayAː
-4.257943	CAːtrasawKayAːyAːH
-4.257943	CAːtrasya
-4.257943	CAːtreːByaH
-4.257943	CAːyAːyAːM
-4.257943	CAːyAːyAːm
-4.257943	CeːdakAːH
-4.257943	CurikAːGAːtaH
-4.257943	CurikayAː
-4.257943	DAːnanti
-4.257943	DAːneː
-4.257943	DAːnyaM
-4.257943	DAːnyakSeːtrAːt
-3.956912	DAːnyakSeːtraM
-4.257943	DAːnyakSeːtrasya
-4.257943	DAːrAː
-4.257943	DAːrayan
-3.780821	DAːrayanti
-4.257943	DAːritam
-4.257943	DAːrmikaBAːvanAː,
-4.257943	DAːryateː.
-4.257943	DAːtavaH
-4.257943	DAːvAːmi
-4.081851	DAːvan
-4.257943	DAːvanasya
-4.257943	DAːvasi
-4.257943	DAːvataH.
-3.956912	DAːvati
-4.257943	DAːvati.
-4.257943	DAːvitavAːn
-4.257943	DAːvitavAːn.
-4.257943	DAːvitavantaH
-4.257943	DAːvitavatIː
-3.956912	DAːvitvAː
-3.956912	DEːryeːNa
-4.257943	DEːryeːNa,
-4.257943	DIːrAːH
-3.60473	DIːvarAːH
-4.081851	DIːvarAːNAːM
-4.257943	DIːvarAːNAːm
-4.257943	DIːvarasya
-4.257943	DIːvaroːktaM
-3.60473	DOːmyaH
-4.081851	DOːmyasya
-4.257943	DRtOː
-4.257943	DRtvAː
-4.257943	DUːlikaNAː:
-4.257943	DUːma
-3.956912	DUːrtAːH
-3.956912	DUːrtaH
-4.257943	DUːrteːSu
-4.257943	DaNa
-4.257943	DanAːd
-4.257943	DanAːdikaM
-4.257943	DanAːgAːrAːt
-4.081851	DanAːgAːreː
-4.081851	DanAːrjanaM
-4.257943	DanAːrjanam
-4.257943	DanAːt
-4.257943	Dana
-3.280219	DanaM
-4.257943	DanaYca
-4.257943	DanaYjaya
-4.257943	DanaganDaH,
-4.257943	DanaganDasya
-4.257943	DanaganDasya,
-4.257943	DanaganDoː
-4.257943	DanaganDoː$vadat-eːSaH
-4.257943	DanakanakAːdikaM
-4.257943	DanaloːBAːt
-3.51758	Danam
-4.257943	DanamadaH
-4.257943	Danamapi
-4.257943	DanapAːlaH
-4.257943	DanapAːleːna
-4.257943	Danapoːqalakamapi
-4.257943	DanaprAːptOː
-4.257943	DanaprIːteːH,caturTazca
-4.257943	DanarAːjaH
-4.257943	DanarAːjasya,
-4.257943	DanarAːzeːH
-4.081851	DanaruceːH
-3.956912	DanaruciH
-4.257943	DanaruciM
-4.257943	DanaruciNAː
-4.257943	DanasaYcayanaM
-4.081851	DanasawgrahAːrTam
-4.257943	DanasyUːteː
-3.860003	Danasya
-3.60473	Daneːna
-4.257943	DanikOː
-4.257943	DanikaH
-4.257943	Danikatvasya
-4.257943	Danikeːna
-4.257943	DanyAː
-4.257943	DanyAːH
-4.257943	Danya
-4.257943	DanyaH.
-4.257943	DarAː
-4.257943	DarAːM
-4.081851	DarAːyAːm
-4.257943	DarmAːdIːnAːM
-4.257943	DarmAːdanantaram
-3.956912	Darma
-3.780821	DarmaH
-4.257943	DarmaM
-4.257943	DarmaM,
-4.257943	DarmaparAːyaNaH
-4.257943	DarmasAːDanam
-4.257943	Darmasya
-4.257943	DarmavAːrtAːM
-4.257943	DarmaviSayeː
-4.257943	DarmavirudDoː
-4.257943	DarmazAːlAːyAːM
-4.257943	DarmazradDAː
-4.257943	DeːnoːH
-4.257943	DeːnuM
-4.257943	Dik
-4.257943	DikkAːrayuktaM
-4.081851	DiyAː
-4.257943	DoːraM
-4.257943	DruvAː
-3.60473	DruvaH
-4.081851	DruvaM
-4.257943	DruvasaMkalpeːna
-4.257943	Druvasawkalpeːna
-4.257943	DruvatAːrAːrUːpeːNa
-4.257943	Druvoː$pi
-4.257943	DvajAːroːhaNAːnantaraM
-4.257943	DvajAːroːhaNaM
-4.081851	DvajaH
-4.257943	DvaniH
-3.860003	DvaniM
-4.257943	DvanigrAːhikam
-4.081851	Dvanim
-4.257943	DvanirahitaM
-4.257943	DvanisaMyoːjaneːna
-4.257943	DyAːnaM
-4.257943	DyAːnamagnAː
-4.257943	DyAːnamagnOː
-4.257943	DyAːnapadDatiH
-4.081851	DyAːneːna
-4.257943	DyAːyan
-4.257943	DyeːyavAːdinaH
-4.081851	EːcCat
-4.257943	EːzvaryAːt
-4.081851	GAːtakaH
-4.257943	GAːtakasya
-4.257943	GAːtakatvarupeːNa
-4.257943	GRtaM
-4.257943	GaNqAːnAːdaH
-3.956912	GaqaH
-3.655882	GaqaM
-4.257943	GaqadIːpa
-4.081851	Gaqam
-4.257943	Gaqameːva
-4.081851	GaqanAː
-4.081851	GaqanAːH
-4.257943	Gaqanteː
-4.081851	Gaqasya
-4.257943	Gaqeː
-4.081851	GaqikAː
-4.257943	GaqikAː.
-4.257943	Gaqiti
-4.257943	Gaqoː
-4.257943	GaqqitaH
-4.257943	Gateː
-4.257943	GoːSaNAːM
-4.257943	GoːraH
-4.257943	GuIː.
-4.257943	IːdRzAːni
-4.257943	IːrSyAːyAːH
-4.081851	IːrSyayAː
-3.956912	IːsavIːyasya
-3.655882	IːsavIːyeː
-4.257943	IːzAːnyakoːNeː
-4.257943	Iːzvara
-3.956912	IːzvaraM
-4.257943	Iːzvaram
-3.558972	Jaqiti
-4.257943	Jaqityupagatya
-4.081851	KAːdanti
-4.081851	KAːdati
-4.257943	KAːdayanti
-4.257943	KAːdeːt
-4.257943	KAːdituM
-3.956912	KAːditvAː
-4.257943	KAːdyaM
-4.257943	KAːdyam
-4.257943	KAːdyamantrIː
-4.257943	KAːdyapeːyAːnAːM
-4.257943	KAːdyateː
-4.257943	KAːlasAːnAːmni
-4.257943	Ka.
-4.257943	KaNxaM
-4.081851	KaNxadvayaM
-4.081851	KaNxapIːVeːna
-4.257943	KaNxayantIː
-4.257943	KaNxayatAː
-3.780821	KaNxazaH
-4.257943	Kadati
-4.257943	KaditavAːn
-3.956912	KagAːH
-4.081851	KagazizUːn
-4.257943	KagazizUːnAːM
-4.257943	KalAːt
-3.053823	Kalu
-4.257943	Kalu!
-3.655882	Kalu.
-4.257943	KalveːSaH
-4.257943	KananaM
-4.257943	KanijapadAːrTAːH
-4.257943	KanitraM
-4.257943	Kanitram
-4.257943	Kapu
-4.257943	Keːcaracakrasya,
-4.257943	KeːlAːva
-4.257943	KeːlAːvaH
-4.257943	KeːlataH.
-4.257943	Keːlati.
-4.257943	OːSaDaM
-4.257943	OːSaDam
-4.257943	OːSaDaseːvaneːna
-4.257943	OːSaDiH
-4.081851	Oːrasa
-4.081851	PaNAːn
-4.257943	PalAːnAːM
-4.257943	PalAːnAːm
-4.081851	PalAːni
-4.257943	PalAːni,
-4.257943	PalaBakSaNaM
-3.445029	PalaM
-3.780821	Palam
-4.257943	Palameːva
-3.780821	Palasya
-4.257943	Paleː
-4.081851	ParavarIː
-4.257943	ParavarIːmAːrcamAːsayoːH
-4.257943	PrAːMdeːzIːyakrIːxAːdaleːna
-4.257943	PrAːMsa-
-4.257943	PrAːMsa-deːzasya
-4.257943	PrAːMsadeːzIːyAːn
-4.257943	PrAːMsadeːzIːyadalasya
-4.257943	PrAːMsadeːzaH
-4.081851	PrAːMsadeːzasya
-4.257943	PrAːMsadeːzeːna
-4.257943	RRNaM
-4.257943	RRNavimuktoː
-4.257943	RRSIːn
-4.081851	RRSayaH
-4.081851	RRSiH
-4.257943	RSIːNAːM
-4.257943	RSIːn
-3.860003	RSayaH
-4.257943	RSayaH!
-4.257943	RSiH
-4.081851	RSijaneːna
-4.257943	RSikumAːrAːNAːm
-4.257943	RSikumAːraH
-4.257943	RSikumAːrasya
-4.257943	RSizreːSVaH
-3.956912	RcAː
-4.257943	RcAː.
-3.780821	RtOː
-4.257943	RtavaH
-4.257943	Rtavoː
-4.257943	RtoːH
-3.956912	RtuH
-4.257943	RtuSu
-4.257943	RtunAːM
-4.081851	RturAːjaH
-4.257943	SaNNAːmRtUːnAːm,
-4.257943	SaNmAːsaparyantam
-4.257943	SaSVoː
-4.257943	Saq
-3.956912	Sax
-4.257943	SaxBiH
-4.257943	SaxmAːsAːn
-4.257943	SaxvarSIːyaH
-4.257943	SixazavarzIːyaH
-4.257943	SoːxaSaH
-4.257943	Soːxaza
-4.257943	SoːxazavarSadeːzIːyaH,
-4.257943	SoːxazavarzIːyaH
-4.257943	SrIːviVValaH
-4.257943	UːrDvadeːzaM
-4.257943	UːrNanAːBajAːlAːdaya:
-4.081851	_
-4.257943	aBAːSat.
-4.257943	aBAːSata
-4.257943	aBAːsata.
-4.081851	aBAːvAːt
-4.257943	aBAːvAːt,veːtanaM
-4.257943	aBAːveːna
-4.257943	aBIːSqasidDiM
-4.257943	aBUːt
-4.081851	aBaNat
-4.081851	aBaNat-
-4.257943	aBakSayan
-4.257943	aBavam
-3.354852	aBavan
-4.257943	aBavan.
-2.713874	aBavat
-3.354852	aBavat.
-4.257943	aBiBavituM
-4.257943	aBiDAːnAːni
-4.257943	aBiDAːnaM
-4.257943	aBiDIːyateː.
-4.257943	aBiSeːkAːrTam
-4.257943	aBiSeːkAːya
-4.257943	aBilaSati
-4.257943	aBilaSitaM
-4.257943	aBimAːnaM
-4.081851	aBimAːneːna
-4.257943	aBinanditAː
-4.257943	aBinanditavAːn.
-4.257943	aBinavEːH
-4.257943	aBinayaM
-4.257943	aBineːtAːraH
-4.257943	aBineːtryazca
-4.257943	aBinnarupeːN
-4.257943	aBiprAːyaH.
-4.257943	aBiprAːyaM
-4.257943	aBiprAːyavinimayaH
-4.257943	aBirakSitaM
-4.257943	aBiroːcayeː
-4.257943	aBivAːdanzIːlasya
-4.257943	aBiyAːcanaM
-4.257943	aBiyantRRNAːM
-4.081851	aBiyoːktAːraH
-4.257943	aBiyoːktRNAːM
-4.257943	aBiyuktAːH
-4.257943	aBiyuktAːsyAːparAːDaH
-4.081851	aBuktvAː
-4.257943	aByAːsaH
-4.257943	aByAːsaH.
-3.956912	aByAːsaM
-4.081851	aByAːsabaleːna
-4.257943	aByAːsagatam
-4.081851	aByAːseːna
-4.257943	aByAːsya
-4.257943	aByajAːnAːM
-4.257943	aByanatreː
-4.257943	aByantareː
-4.257943	aDAːvan
-3.655882	aDAːvat
-4.257943	aDIːnAːH
-4.257943	aDIːteː
-3.655882	aDaH
-4.081851	aDamasya
-4.257943	aDarmaH
-4.081851	aDikAː
-4.257943	aDikAːDikaM
-3.956912	aDikAːrIː
-4.257943	aDikAːraH
-4.257943	aDikAːriNIː
-4.257943	aDikAːriNaH
-4.257943	aDikAːriNeː
-4.257943	aDikAːrirupeːNa
-3.60473	aDikRtya
-4.257943	aDika:
-4.081851	aDikaH
-3.713874	aDikaM
-4.257943	aDikam
-4.257943	aDikavarSeːByaH
-4.257943	aDikurvatIː
-4.257943	aDipatiH
-4.257943	aDivaktAː
-4.257943	aDivaktRSu
-4.257943	aDivaktuH
-4.257943	aDoːBAːgaM
-4.257943	aDoːBAːgeːna
-3.280219	aDunAː
-4.257943	aDunAː.
-4.257943	aDunAːpi
-4.257943	aDunAːstu
-3.655882	aDyAːpakaH
-4.081851	aDyAːpakaH-
-4.081851	aDyAːpayat
-4.257943	aDyAːtmadizi
-4.257943	aDyAːtmagranTa:
-4.257943	aDyAːtmaniratAːH
-4.257943	aDyAːtmaratAː
-4.257943	aDyAːtmaratAːnAːM
-4.257943	aDyAːtmaviSayeː
-4.257943	aDyAːtmavidyAːyAːH
-4.257943	aDyAːtmavidyAːyAːM
-4.257943	aDyayanAːrTaM
-4.081851	aDyayanaM
-4.257943	aDyayanakAːleː
-4.257943	aDyayanam
-4.257943	aDyayanamAːtreːNa
-4.257943	aDyeːtuM
-4.257943	aDyeːtum
-4.257943	aGanAːzanaM
-4.257943	aGanAːzinyAːH
-4.257943	aKAːdan
-4.257943	aKAːdan.
-4.257943	aMwgulayoː
-4.257943	aMzAːnAːM
-4.257943	aMzaH
-4.257943	aMzaM
-4.257943	aMzamAːtreːNa
-4.081851	aNxAːni
-4.081851	aNxaM
-4.257943	aNxeːByaH
-4.257943	aPrikAːdeːzaM
-4.257943	aSqAːdazarupyakamUːlyeːna
-4.257943	aSqAːviMzatiM
-4.257943	aSqAːviMzatyAː
-4.257943	aSqa
-4.081851	aSqameː
-4.257943	aSqavarSAːNi
-4.257943	aSqavarSIːyAː
-3.51758	aTa
-4.257943	aTagayitvAː
-3.860003	aTavAː
-4.257943	aTavAːvasTAːnam
-4.257943	abAːDyAːM
-4.257943	abalAː,
-4.257943	abdulakalAːma-mahoːdayaH
-4.257943	abravIːt
-4.257943	abravIːt-gRhadAːhasya
-4.081851	acAːraM
-4.257943	acalaH
-4.257943	acalavizvAːsavAːn
-4.257943	acintayacca
-4.257943	acintayacca-mRtazarIːraM
-4.081851	acintayan
-3.780821	acintayat
-4.081851	acintayat-
-4.257943	acintayat-aDunAː
-4.257943	acintayat-kadAːcit
-4.257943	acintayat-zIːGrameːva
-4.081851	adButAː
-4.257943	adButaM
-4.257943	adRzyam
-4.257943	adUːradarzitAːyAːH
-4.081851	adahat
-4.257943	adazan
-4.257943	adyAːpakaH
-4.257943	adyAːpi
-4.257943	adyAːvaDi
-4.081851	adyEːva
-3.3037	adya
-4.257943	adyatana
-4.081851	adyatveː
-4.257943	adyunAː
-4.257943	agRhNAːt
-3.956912	agacCan
-3.354852	agacCat
-4.257943	agacCat,
-4.257943	agacCat.
-3.956912	agacCatAːm
-4.257943	agacCt
-4.257943	agaccat
-4.081851	agarjat
-4.257943	agasta
-4.257943	agastamAːsasya
-4.257943	agastamAːsya
-4.257943	agneːH
-4.081851	agni
-4.081851	agniH
-4.257943	agniM
-4.081851	agninAː
-4.257943	agnisaMskAːrAːya
-4.257943	agnisparzaH
-4.257943	agraBAːgeː
-4.257943	agram
-3.713874	agreː
-4.257943	agreːsarAːH
-4.257943	agriDanaM
-3.860003	agrimeː
-4.257943	ahRhNAːt
-2.69565	ahaM
-2.896214	aham
-4.257943	aham.
-4.257943	ahamapinamoː
-4.257943	ahamasmin
-4.257943	ahamavaSyameːva
-4.257943	ahameːkaM
-3.558972	ahameːva
-4.081851	ahamikAːyAːH
-4.257943	aharahaH
-4.257943	aharat
-4.257943	ahasan
-4.257943	ahasyamayi
-4.081851	ahiMsAː
-4.257943	ahiMsAːmavalambya
-4.257943	ahiMsAːvratam
-3.60473	ahoː
-4.081851	ahoː!
-4.257943	ahoː,
-4.081851	ahoːrAːtraM
-4.257943	ajAːH.
-4.257943	ajAːnan
-4.081851	ajAːyata
-4.257943	ajIːrNeː
-4.257943	ajYAːnAːd
-4.257943	ajYAːtvAː
-4.257943	ajaH
-4.257943	ajaHasti
-4.081851	ajaM
-4.081851	ajam
-4.257943	ajanayat.
-4.257943	ajapat
-4.257943	ajvalad
-4.257943	ajvalayat
-4.257943	akAːrAːdi
-4.257943	akSAːmyat
-4.257943	akSakoː
-4.257943	akSarazaH
-4.257943	akSipan
-3.860003	akSipat
-4.081851	akUːrdan
-4.081851	akUːrdat
-4.257943	akaTayan
-4.257943	akaTayan-
-3.713874	akaTayat
-3.956912	akaTayat-
-4.257943	akabar
-3.860003	akabaraH
-4.257943	akabaraM
-4.081851	akabarasya
-4.257943	akabarazca
-4.081851	akabareːNa
-4.257943	akampanta
-4.257943	akampata.
-4.257943	akarNayat
-3.067611	akaroːt
-4.081851	akaroːt.
-3.445029	akasmAːt
-4.257943	akqubaraH
-3.956912	akrandat
-4.257943	akrandatAːm
-4.081851	aktUːbaramAːsasya
-3.780821	akurvan
-3.860003	alaBat
-3.956912	alaBata
-4.081851	alaBata.
-3.780821	alaM
-4.257943	alaMkareːNa
-4.081851	alaPreːxa-
-4.257943	alabDvAː
-4.081851	alagammalamahoːdayAː
-4.257943	alam
-4.257943	alam.
-4.257943	alamAːveːgeːna
-4.257943	alarkaroːgeːNa
-4.257943	alasasya
-4.257943	alawkAːramAːtraM
-4.257943	alawkRta:
-4.257943	alawkRtam
-4.257943	alawkaroːtu
-3.713874	aliKat
-4.257943	aliptaM
-4.257943	alpAːhAːra:
-4.257943	alpAːhAːraM
-4.257943	alpAːhAːram
-4.257943	alpAːyustvasya
-4.257943	alpOː
-4.257943	alpakleːzeːBya:
-4.257943	alpasyAːpi
-4.257943	alyAːpAːhAːra:.
-4.257943	amAːtya-Aːdi-rUːpeːNa
-4.257943	amAːtyaAːdirUːpeːNa
-4.257943	amAːvasyAːyAːM
-4.257943	amAːvasyAːyAːm
-4.257943	amRtaGaqaHiva
-4.257943	amRtaGaqaM
-4.081851	amRtaM
-4.257943	amRtapUːrNaM
-4.257943	amRtasadRzaM
-4.257943	amRtasanagareː
-4.257943	amRtasya
-4.257943	amUːdavalAːsAːnagareː
-4.257943	amanyat
-4.257943	amaranAːTa-mandiram
-4.257943	amartyaiti
-4.257943	amartyaseːnamahoːdayaH
-4.257943	amartyaseːnamahoːdayeːna
-4.257943	amartyaseːnasya
-4.257943	ambAːM
-4.257943	ambAːm
-4.257943	ambAːyAːH
-4.257943	ambAːzawkaraH
-3.860003	amba
-4.257943	amba!
-4.257943	ameːrikAːdeːzavAːsIː
-4.257943	ameːrikAːyAːM
-4.257943	ameːrikAːyAːmiti
-3.860003	amilat
-4.257943	amilatAːm
-4.257943	amuKaH
-4.081851	amumeːva
-4.257943	an
-4.257943	anAːdaraH
-3.860003	anAːgataviDAːtAː
-4.081851	anAːgataviDAːtAː,
-4.081851	anAːgatyaviDAːtAː
-4.257943	anAːsTAː
-4.257943	anAːsaktinAːmakaM
-4.257943	anAːvRSqiH
-4.257943	anAːyAːseːna
-4.257943	anDAː
-4.257943	anDaH
-3.956912	anDakAːram
-4.081851	anDavizvAːsAːn
-4.257943	anRtaM
-4.257943	anRtam
-4.257943	anRtyat
-4.081851	anRtyat.
-4.257943	anaByAːseː
-4.257943	ananta:
-3.382881	anantaraM
-4.081851	anantaradineː
-3.713874	anantaram
-4.257943	anarTa:
-4.257943	anarTaH
-4.257943	anatikAːleːna
-4.257943	anayAː
-3.956912	anayan
-4.081851	anayat
-4.257943	anazanaM
-4.081851	anazyat
-4.257943	anba
-3.860003	aneːkAːH
-4.257943	aneːkAːn
-3.51758	aneːkAːni
-3.956912	aneːkAːsu
-4.257943	aneːkEːH
-4.257943	aneːkatAːyAːm
-4.081851	aneːkavAːraM
-4.257943	aneːkazaH
-3.558972	aneːkeː
-4.257943	aneːkeːSAːM
-4.257943	aneːkeːSAːm
-4.081851	aneːkeːSu
-4.081851	aneːnEːva
-3.382881	aneːna
-4.257943	aneːna.
-4.257943	aneːneː
-4.257943	anicCAːtaH
-4.257943	anicCanta:
-4.257943	anityam
-4.257943	anivAːryAː
-4.257943	anivAːryaH
-4.081851	annAːni
-4.081851	annam
-4.257943	antAːrAːSqriyasaMsTAː
-4.081851	anta:
-3.780821	antaH
-4.257943	antaHkaraNasya
-4.257943	antaHpuraM
-4.257943	antaHpuram
-4.257943	antarAː
-4.257943	antarAːleː
-4.257943	antarBAːgeː
-4.257943	antarBavati
-4.257943	antaraw-agavaloːkanaM
-4.257943	antareː
-4.257943	antarhitaH
-4.257943	antarhitazca
-4.257943	antarmuKIː
-4.257943	antarmuKoː
-4.081851	antataH
-3.956912	antatoː
-3.956912	anteː
-4.257943	antimaM
-4.257943	antimacaraNeː
-4.257943	anuBUːtavAːn
-4.257943	anuBUːyAː$pi
-4.257943	anuBUːya
-4.081851	anuBUːyatAːM
-4.257943	anuBUːyateː
-4.257943	anuBUːyateː.
-4.257943	anuBavAːmi
-4.257943	anuBavAːn
-4.081851	anuBavAːt
-3.713874	anuBavanti
-4.257943	anuBavantu
-4.257943	anuBaveːna
-4.257943	anuButaM
-4.257943	anuButavAːn
-4.257943	anuDAːvanaM
-4.257943	anuSVitAː
-4.257943	anudAːna
-4.081851	anudAːnaM
-4.257943	anudAːnasya
-4.257943	anugRhaH
-4.257943	anugatavAːn
-4.081851	anujAː
-4.257943	anujeːByaH
-4.081851	anukSaNaM
-4.257943	anukSaNameːva
-4.257943	anukampayAː
-4.257943	anukaraNIːyaH
-4.257943	anukaraNIːyameːvAːsti
-4.257943	anukartuM
-4.257943	anuktvAː
-4.257943	anumatiM
-4.257943	anunayaM
-4.257943	anupasTitaM
-4.257943	anurUːNadDi.
-4.081851	anuroːDaH
-3.860003	anusRtya
-4.257943	anusaM
-4.257943	anusaratu.
-4.257943	anutAːpam
-4.257943	anutiSVataH
-4.257943	anutiSVitaH
-4.257943	anuvartamAːnaH
-4.257943	anuvartayituM
-4.257943	anuvartitavAːn
-4.257943	anuvartitavatIː-
-4.257943	anuyAːyiSu
-4.081851	anvaBavat
-4.257943	anvarTaM
-4.257943	anvatiSVan
-4.257943	anveːSaNAːrTam
-3.956912	anveːSaNaM
-4.257943	anveːSaNeːna
-4.081851	anveːSquM
-4.257943	anviSqeː
-4.257943	anviSya
-4.257943	anviSyan
-4.257943	anviSyanti.
-3.956912	anyAː
-4.257943	anyAː:
-3.956912	anyAːn
-3.713874	anyAːni
-3.780821	anyEːH
-4.257943	anya
-4.257943	anya:
-4.081851	anyaH
-3.956912	anyaM
-3.956912	anyaTAː
-4.081851	anyacca
-4.257943	anyad
-4.257943	anyadapi
-4.257943	anyadapi,
-4.257943	anyasmAːt
-4.257943	anyasmin
-4.257943	anyasya
-3.860003	anyat
-4.257943	anyatarAːM
-4.257943	anyataraH
-3.655882	anyatra
-3.713874	anyeː
-4.081851	anyeːSAːM
-4.257943	anyeːSAːm
-4.081851	anyeːSu
-4.257943	anyeːdyuH
-4.257943	anyoː$nyaM
-4.257943	apAːgacCat
-4.257943	apAːlayat
-4.257943	apAːrayam
-4.257943	apAːtayat
-4.257943	apAːyasUːcakaM
-3.445029	apRcCat
-4.081851	apRcCat-
-4.257943	apRcCat-.
-4.257943	apRcCat-kaTam.
-4.081851	apRcCat.
-4.257943	apRcCt
-4.257943	apUːrvaH
-4.257943	apaVam.
-4.257943	apacan
-4.257943	apadoː
-4.081851	apahRtavAːn
-4.257943	apaharaNaM,
-3.956912	apakvam
-4.257943	apamAːneːna
-3.956912	apanayati
-4.081851	aparAː
-4.257943	aparAːDIː
-4.081851	aparAːDIː-
-3.956912	aparAːDaH
-4.257943	aparAːDam
-4.257943	aparAːDasya
-4.257943	aparAːDinaM
-4.257943	aparAːhaNasamayaH
-4.257943	aparAːjitAː
-4.257943	aparIːkSya
-3.445029	aparaH
-3.860003	aparaM
-4.257943	aparanAːmAː
-4.257943	aparasmin
-4.257943	apareː
-4.257943	aparicitasyAːpi
-4.257943	aparicitasya
-4.257943	aparihAːryaM
-4.257943	aparoː
-4.257943	aparyAːptaM
-4.257943	apasAːritAː:
-4.257943	apasRtavAːn
-3.860003	apatat
-4.257943	apatyanirvizeːSAːNi
-4.257943	apatyanivizeːSAːNi
-4.257943	apavitraM
-4.257943	apazyam
-3.956912	apazyan
-3.713874	apazyat
-4.257943	apazyat.
-4.081851	apeːkSAː
-4.257943	apeːkSAː.
-4.257943	apeːkSAːNAːM
-4.257943	apeːkSanteː
-4.257943	apeːkSaseː.
-3.956912	apeːkSeː
-4.257943	apeːkSitaM
-4.257943	apeːkSitavantaH
-2.365848	api
-4.257943	apiH.
-4.257943	apibat
-4.257943	apijYAːtavantaH
-4.081851	apitu
-4.257943	aprEːla
-4.081851	aprEːlamAːsasya
-4.257943	aprasAːDitAːH
-4.257943	aptyAːni,
-4.257943	aqati
-4.257943	aqqeː
-4.257943	arDAːwgini
-4.257943	arDagoːleː
-4.257943	arDam
-4.257943	arDapakvameːva
-4.257943	arDavartulAːkAːram
-4.081851	arTaH
-4.257943	arTaM
-4.257943	arTadaNxam
-4.257943	arTasya
-4.257943	arTazAːstrIː
-4.257943	arTazAːstram
-3.860003	arTazAːstreː
-4.257943	arTeː$ntarBavanti
-4.257943	arToː
-4.257943	arToː$sti.
-4.257943	araNyaM
-4.257943	arabasAːgaraH
-4.257943	aravindam
-4.257943	arcaka
-4.081851	arcaka:
-4.257943	arcakasya
-4.257943	areː
-4.257943	areː,kutazcit
-4.257943	arhAːH,
-4.257943	arhanti
-4.257943	arhasi
-3.860003	arhati
-4.257943	arheːByaH
-4.257943	arheːt.
-3.956912	arjiteːna
-4.257943	aroːcata
-4.257943	arpayituM
-4.257943	arpayitum
-4.257943	aruNAːcalam
-4.257943	aruNAːcalasya
-4.257943	aruNAːcaleːzvaramandirazca
-4.257943	aruNAːcaleːzvaramandireː
-4.257943	aruNAːcaleːzvarasya
-4.257943	asAːDnoːt
-4.257943	asAːDyam
-4.257943	asAːDyam.
-4.081851	asAːraH
-4.257943	asH
-4.257943	asIːt
-3.713874	asOː
-3.780821	asTIːni
-4.081851	asTiBiH
-4.081851	asTiratayAː
-4.257943	asTizeːSAːH
-4.257943	asaMKyAːsu
-4.257943	asahAːyaH
-4.257943	asahakAːrAːt
-4.257943	asahanayAː
-4.257943	asahat
-4.257943	asahatAːm
-4.257943	asahata
-4.257943	asahayoːgAːndoːlaneː
-4.257943	asahayoːga-AːndoːlanaM
-4.257943	asahya
-4.257943	asajjIːkRtya
-4.257943	asamAːhitAː
-4.257943	asamAːptaprAːrTanAːdoːSeːNa
-4.257943	asamarTaH
-4.257943	asamarToː$Bavat
-3.956912	asi
-3.143999	asmAːBiH
-4.257943	asmAːakam
-3.081851	asmAːkaM
-3.860003	asmAːkam
-3.780821	asmAːn
-4.257943	asmAːsu
-4.257943	asmAːtpUːrveː
-4.081851	asmEː
-4.081851	asmaByaM
-4.257943	asmaByam
-4.257943	asmad
-4.257943	asmadapeːkSAːnusAːraM
-4.257943	asmadgurucaraNAːnAːm
-4.257943	asmadupAːrjitasya
-4.257943	asmatkulaM
-3.127609	asmi
-4.257943	asmi.
-3.081851	asmin
-4.257943	asminnavasareː
-3.956912	asminneːva
-4.257943	aspRSyatAːm
-4.257943	aspRzyatAːm
-4.257943	asrveː
-4.257943	asssti
-4.081851	assya
-4.257943	astanaBoːjaneː
-2.469067	asti
-4.257943	asti,
-3.257942	asti.
-4.257943	astitvameːva
-4.257943	astrarahitaH
-4.257943	astreː
-4.257943	astti
-3.780821	astu
-4.257943	astu!
-4.257943	astu,asmAːBiH
-4.257943	asurAːH
-4.257943	asurAːNAːM
-4.257943	asurAːn
-4.257943	asvAːsTyam
-4.257943	asvasTAː
-4.257943	asvasTAːH
-4.257943	asvasTaM
-4.257943	asvasTatAːyAːH
-3.21655	asyAːH
-4.081851	asyAːM
-4.257943	asyAːm
-4.081851	asyEːva
-2.773643	asya
-4.257943	atAːxayat
-4.257943	atIːtAː:
-4.081851	atIːtaH
-3.3037	atIːva
-3.713874	ata
-3.956912	ata:
-2.739429	ataH
-3.860003	ataeːva
-4.257943	ataeːva,
-4.257943	atalabihAːrIː
-4.257943	atasteː
-3.713874	ati
-4.257943	ati-maDuram
-4.081851	atiSVan
-3.713874	atiSVat
-4.257943	atiSVat.
-4.257943	atiTiprakoːSVeː
-4.257943	atidUːramagacCan
-4.257943	atidUːrasTaH
-4.257943	atidaridraH
-4.257943	atikrAːntavAːn
-4.257943	atikrudDoː$Bavat
-4.257943	atinirmalAː
-4.257943	atiprasannOː
-4.257943	atirikta-samayeː$pi
-4.257943	atiriktaM
-4.257943	atisaMnihitaH
-4.257943	atitIːkSNAː
-4.257943	ativAːhitaH
-4.257943	ativRSqeːH
-4.081851	ativRSqiH
-4.081851	atizEːtyAːt
-4.257943	atizIːtam
-4.081851	atoː$haM
-4.257943	atoː$ham
-4.257943	atoː$tra
-4.257943	atrAːgantavyam
-4.257943	atrAːpi
-3.655882	atrEːva
-2.780821	atra
-4.257943	atra.
-4.257943	atratyAː
-4.257943	atyAːDunikaH
-4.257943	atyaDikaH
-3.60473	atyaDikaM
-4.257943	atyaDikam
-4.257943	atyajan
-3.51758	atyajat
-4.257943	atyajat.
-4.257943	atyalpaM
-3.780821	atyantaM
-4.257943	atyantalAːlitaM
-4.257943	atyantam
-4.257943	atyapeːkSAː
-4.257943	atyuSNam
-4.257943	atyunntAːni
-4.257943	atyuttamaH
-4.257943	avAːdaDAːm.
-4.257943	avaDAːnaM
-4.257943	avaSyam
-4.257943	avacinoːmi
-4.257943	avadam-
-4.081851	avadan
-4.257943	avadan-
-3.00267	avadat
-3.382881	avadat-
-4.081851	avadat-AːrUːNeː!
-4.257943	avadat-areː
-4.257943	avadat-mAːnanIːya
-4.257943	avadat-tvarAːM
-4.257943	avadat-uttarAːNi
-3.956912	avadat.
-4.257943	avagaNitAː
-4.257943	avagacCasi
-4.257943	avagantuM
-4.257943	avagatam
-4.257943	avagatavAːn
-4.257943	avagatavantaH
-4.257943	avahat
-4.257943	avalambateː
-4.257943	avalamboː
-4.081851	avalambya
-4.257943	avalamvya-
-4.257943	avaloːkayanti
-4.257943	avaloːkayataH.
-4.257943	avaloːkitavAːn
-3.655882	avaloːkya
-4.257943	avarData
-4.257943	avarUːdDaH
-4.257943	avaroːDAːrTam
-4.257943	avaroːhaNAːt
-4.257943	avarudDya
-4.257943	avasTAː
-4.257943	avasTAːpya
-4.257943	avasTAːyAːM
-4.257943	avasTAːyAːm
-4.257943	avasTitAːH
-3.860003	avasan
-4.081851	avasaraM
-3.956912	avasareː
-3.860003	avasat
-4.257943	avatAːravizeːSasya
-4.257943	avatAːrayituM
-4.257943	avatAːrayitum
-4.257943	avatIːrya
-4.257943	avatarAːmi
-4.257943	avaziSqAː
-4.257943	avaziSqAːn
-4.257943	avaziSqEːH
-4.257943	avaziSqeːSu
-4.257943	avazoːSayituM
-4.081851	avazyaM
-4.081851	avazyam
-4.257943	avazyameːva
-4.257943	aviBAːjyam
-4.257943	avicalitaH
-4.257943	avidyAːM
-4.257943	avidyAːm
-4.257943	avidyamAːnAː
-4.257943	avihAː!
-4.257943	avihAː!.
-4.257943	avikasitaM
-4.081851	avinIːta
-4.257943	avindata
-4.257943	avizvAːsavAːn
-4.257943	avoːcat.
-4.257943	avrajat
-4.257943	avyaktAːyAːH
-4.257943	avyattAːyAːH
-4.257943	awgIːkAːraM
-4.257943	awgIːkRtam.
-4.257943	awgIːkRtavatIː
-4.257943	awgIːkaraNIːya:
-4.257943	awgIːkaroːSi.
-4.081851	awgIːkaroːti
-4.257943	awgIːkartumicCAːmi.
-4.257943	awgam
-4.257943	awgarAːja!
-4.257943	awgarakSakAːH
-4.257943	awgarakSakAːzca
-4.257943	awgikRtavAːn
-4.081851	awgulIːyakeː
-4.257943	awguligaNanIːyAːHeːva
-3.956912	awkeː
-4.257943	awkuraH
-4.257943	awkurasya
-3.51758	ayaM
-4.257943	ayacCat,
-3.445029	ayam
-3.860003	ayameːva
-4.257943	ayanAːya.
-4.257943	ayanam
-4.257943	ayeː
-4.081851	ayi
-4.257943	ayoːDyAːM
-4.081851	ayoːDyAːm
-4.081851	ayoːDyAːyAːH
-4.257943	ayoːgya
-4.081851	ayyaramahoːdayaH
-4.257943	azAːmyat
-4.257943	azaknoːt
-4.081851	azakyAː
-4.257943	azakyaM
-4.081851	azakyam
-4.257943	azeːta
-4.257943	azikSitAːH
-4.081851	azoːkaH
-4.257943	azoːkaM
-4.257943	azoːkasya
-4.257943	azoːkeːna
-4.257943	azrAːvayat
-4.257943	azrRNoːt
-4.257943	azrRNvatIːva
-4.257943	azru
-4.257943	azruDAːrAː
-4.081851	azruDAːrAːM
-4.257943	azrutvAː
-4.257943	azvaH
-4.257943	azvameːDayajYaH
-4.257943	azvasya
-4.081851	bAːDateː
-4.257943	bAːDyamAːnaM
-4.257943	bAːXam
-4.257943	bAːlAː
-3.860003	bAːlAːH
-4.257943	bAːlAːnAːM
-3.956912	bAːlAːnAːm
-3.780821	bAːla
-3.51758	bAːlaH
-4.257943	bAːlaH,
-3.780821	bAːlaH-
-4.257943	bAːlaH-sadRSqikSeːpam
-3.860003	bAːlaM
-4.257943	bAːladivasarUːpeː
-4.257943	bAːlagaMgAːDaratilakaH,
-3.713874	bAːlakAːH
-4.257943	bAːlakAːmupalAːlayan
-4.257943	bAːlakAːya
-3.60473	bAːlakaH
-4.257943	bAːlakaTAːH
-4.257943	bAːlakam
-3.713874	bAːlakasya
-4.081851	bAːlakoː$pi
-4.257943	bAːlamRgeːndraM
-4.257943	bAːlamahiSaM
-3.956912	bAːlasya
-4.081851	bAːleː$smin
-4.081851	bAːleːByaH
-4.257943	bAːleːSu
-3.60473	bAːlikAː
-3.860003	bAːlikAːH
-4.081851	bAːlikAːyAːH
-4.257943	bAːlyAːt
-4.257943	bAːlyAːvasTAːyAːm
-4.257943	bAːlyakAːlataH
-3.956912	bAːlyakAːleː
-4.257943	bAːlyeː
-3.956912	bAːnDavAːH
-4.257943	bAːnDavAːH,guNavantaH
-4.257943	bAːnDavyAːdatinibixaM
-4.257943	bEːrisqara
-4.257943	bIːjeːna
-4.257943	bIːrabala
-3.713874	bIːrabalaH
-4.257943	bIːrabalaM
-4.257943	bIːrabalam
-4.257943	bIːrabaleːna
-4.257943	bJavAːn
-4.257943	bRhat
-4.257943	bRhat.
-4.081851	bRhatpoːtasya
-4.257943	baMgAːlapradeːzeː
-4.257943	badDAːH
-3.956912	badDaH
-4.081851	badDaM
-4.257943	badDakakSoː
-4.257943	badDakapoːtAːn
-4.081851	badDam
-4.257943	badDam.
-3.655882	badDvAː
-4.257943	bahAːdurapuravIːTyAːM
-4.257943	bahUːdUːragamana
-4.081851	bahUːnAːM
-4.257943	bahUːni
-4.257943	bahabaH
-3.60473	bahavaH
-4.081851	bahavoː
-4.081851	bahi:
-3.3037	bahiH
-4.257943	bahiH-kartum
-4.257943	bahiHniSkAːsitavAːn.
-4.257943	bahiSkartuM
-4.257943	bahireːva
-4.257943	bahirgamanaM
-4.257943	bahoːH
-3.956912	bahu
-4.081851	bahuDAː
-4.081851	bahuSu
-4.257943	bahukRzakAːyaH
-4.257943	bahuprAːcIːnaH
-4.257943	bahusahasraM
-4.257943	bahusawKyakAːH
-3.956912	bahuvAːraM
-4.257943	bahuviDaM
-4.257943	bahuviDeːna
-4.257943	bakOː
-4.257943	balIːvardAːn
-4.257943	balIːvardOː
-4.257943	balIːyaH
-4.257943	balIːyasIː
-4.081851	balaM
-3.558972	balam
-4.257943	balapradarzanaM
-4.257943	baleːna
-4.257943	banDUːn
-4.257943	banDaH
-4.257943	banDameːkaM
-4.257943	banDanAːd
-4.257943	banDanAːya
-4.257943	banDanaM
-4.257943	banDavyam
-4.081851	banDuByaH
-4.257943	banDuH
-4.257943	baqurasOː
-4.257943	barBarti
-4.257943	baragara
-4.081851	basayAːneː
-4.257943	bawgoːpasAːgaraH
-4.257943	beːwgalUːrunagaram
-4.257943	biBranna
-4.081851	bihAːrasya
-4.257943	bihAːreː
-4.257943	bilAːt
-4.257943	binAː
-4.257943	bindumapi
-4.257943	birabalaH
-4.257943	biralAː
-4.257943	boːDanAːya
-4.257943	boːDitaH
-4.081851	brAːhamaNa
-4.081851	brAːhamaNaM
-4.257943	brAːhamaNasya
-4.257943	brAːhmAːNAːt
-4.257943	brAːhmaNAː
-3.713874	brAːhmaNIː
-4.257943	brAːhmaNIːm
-3.860003	brAːhmaNaH
-4.257943	brAːhmaNakumAːrAːH
-4.081851	brAːhmaNam
-4.257943	brAːhmaNaputraH
-4.257943	brAːhmaNaputram
-4.257943	brAːhmaNaputrasya
-4.257943	brAːhmaNaveːSaDAːrIː
-4.257943	brAːhmaNayuvakasya
-4.081851	brAːjIːla
-4.257943	brAːjIːla-deːzIːyeːna
-4.257943	brAːjIːla-hAːlEːNxa
-4.257943	brAːjIːladeːzaM
-3.780821	brAːjIːladeːzasya
-4.257943	brAːjIːladeːzayoːH
-4.257943	brUːteː-zazakoː$haH
-4.257943	brUːteː-zruNu,
-4.257943	brahmAː
-4.257943	brahmAːNxaBAːgasya,preːyAːn
-4.257943	brahmaNaH
-4.257943	brahmaNeː
-4.257943	brahmacAːrIː
-4.257943	brahmaniSVAː
-4.257943	buDdasya
-4.257943	buDdayAː
-4.257943	buDdtvam
-4.081851	buDiryasya
-4.257943	buSvAːl|y-nAːmakasya
-4.081851	budDiH
-4.257943	budDibaleːna
-3.780821	budDimAːn
-4.257943	budDimAːn,
-4.257943	budDirahitAːH
-4.081851	budDirbalaM
-4.257943	budDiruttamAː.
-4.257943	budDivyayaM
-4.257943	budDyAː
-4.257943	bukkataH.
-4.081851	cAːcAː
-4.257943	cAːkaTayat
-3.956912	cAːlakaH
-4.081851	cAːlakaM
-4.257943	cAːlanasya
-4.257943	cAːlawkRtavAːn
-4.257943	cAːlaya
-4.257943	cAːlayataH.
-4.257943	cAːlayati.
-4.257943	cAːlikeː
-4.257943	cAːlpasya
-4.257943	cAːnupamAː
-4.257943	cAːpalaM
-4.257943	cAːpatat
-4.081851	cAːpi
-3.956912	cAːsIːt
-4.257943	cAːsIːt.
-4.257943	cAːsan
-4.257943	cAːstAːm
-4.081851	cAːsti
-4.257943	cAːsya
-4.257943	cAːtikrAːmati
-4.257943	cAːtra
-4.081851	cAːyaM
-4.257943	cAːyapAːtram
-4.257943	cIːnadeːzeː
-4.257943	cOːrAːNAːm
-4.081851	cOːryaM
-4.257943	cOːryakarma
-4.257943	cOːryavAːrtAː
-4.257943	cOːsAː,
-4.257943	cUːrNaM
-4.081851	cUːrNam
-4.081851	cUːrNapUːritaM
-4.257943	cUːrNitAːH.
-4.257943	cUːxidAːravastraM
-2.036528	ca
-3.860003	ca-
-4.257943	ca-BoːH
-4.257943	ca-ahaM
-4.257943	ca-amba!
-3.956912	ca.
-4.257943	caH
-4.257943	caMcalaM
-4.257943	caMxaravaH
-3.780821	caNxaravaH
-3.860003	caNxaravam
-4.257943	caNxaravoː
-4.081851	caSakaH
-4.257943	caSakaH.
-4.257943	caYcalabAːlaka
-4.257943	caYcalatAː
-4.257943	caeːtat
-4.257943	cakSuH
-4.257943	cakSurindriyamapi
-4.257943	cakrIː
-4.257943	cakravartIː
-4.257943	cakravartilakSaNamapyaneːna
-4.257943	cala
-4.257943	calaccitravIːkSaNeː
-4.081851	calacitrAːNi
-3.655882	calacitraM
-4.257943	calacitraM,
-4.081851	calacitraNam
-4.257943	calacitramapi
-4.257943	calacitramatIːva
-4.257943	calacitraprakSeːpiNAː
-4.257943	calacitrasyAːpi
-3.956912	calacitrasya
-4.257943	calacitreː
-4.257943	calanacitradarzanAːya
-4.081851	calati
-4.257943	caleːma
-4.257943	camasAːzca
-4.257943	camatkAːraH
-4.257943	camoːlIːjanapadeː
-4.257943	campAːraNeː
-4.257943	campakaDAːma-kAːPIː
-4.257943	candanapeːSaNaM
-3.558972	candraH
-4.257943	candracUːxavaryaH
-4.257943	candramapi
-4.257943	candrapratibimbaM
-4.257943	candrasaroːvarasya
-4.081851	candrasya
-4.257943	candrazeːKara-AːjAːdasya
-3.780821	candrazeːKaraH
-4.257943	candrazeːKaraH.
-4.257943	candrazeːKarasya
-4.081851	candrazeːKarazca
-4.081851	candreːNa
-4.257943	capalAːH
-4.257943	caqakeː
-4.257943	caqakeː.
-4.257943	caraNOː
-4.257943	caraNayoːH
-4.257943	caranti.
-4.257943	carcAː
-4.257943	carcAːyAːH
-4.257943	caritraM
-4.257943	carkarti,
-4.257943	carma-mAːsaM-ruDiraM
-4.257943	catasRBi:
-4.081851	catasraH
-4.257943	catuSpaTasamIːsTeː
-4.257943	caturBittitaH
-4.257943	caturSu
-3.860003	caturTaH
-4.081851	caturTasya
-4.081851	caturTeː
-4.257943	caturTyAːM
-3.956912	caturaH
-4.257943	caturdaza-varSIːyAː
-4.081851	caturdazatAːrikAːyAːm
-4.257943	caturdazavarSIːyAː
-4.257943	caturdazeː
-4.257943	caturdazeːvarSeː
-4.257943	caturdazyAːM
-4.257943	caturvAːdaneː
-4.257943	caturvAːraM
-4.257943	caturviMzatidalAːni
-4.257943	catvAːra:
-3.860003	catvAːraH
-4.257943	catvAːri
-3.956912	catvAːroː
-4.257943	cayanaM
-4.257943	cayanam
-4.257943	ceːSqitameːvAːsya
-3.956912	ceːdapi
-4.257943	ceːdapi,
-4.257943	ceːdeːva
-4.257943	ceːkAːv,
-4.257943	ceːn
-3.558972	ceːt
-4.257943	ceːtanAːM
-3.956912	ceːti
-4.257943	ceːwgalpaqyAːnAːgAːraM
-4.257943	cidaMbarasubrahmaNyam-
-4.257943	cihnAːnAːM
-4.257943	cihnAːni
-4.257943	cikitsAː
-3.780821	cikitsAːlayaM
-4.257943	cikitsAːlayeː
-4.257943	cikitsAːlyAːH
-4.257943	cikitsAːrTam
-4.257943	cikitsAːzAːstram
-4.257943	cikitsaM
-4.257943	cikitsakAːt
-4.257943	cikitsakaH
-4.081851	cikitsakaH-
-4.257943	cikitsakoː$sti
-4.257943	cinham
-4.257943	cinhitaM
-4.257943	cinoːtu
-3.780821	cintAː
-4.081851	cintAː.
-3.956912	cintAːM
-4.257943	cintAːm
-4.257943	cintAːmagnaH
-4.257943	cintAːmakurvan
-4.257943	cintAːyAːM
-4.257943	cintanIːyAː
-4.257943	cintanIːyaH
-4.257943	cintanIːyam
-3.956912	cintanaM
-4.257943	cintanam
-4.257943	cintanamAːtreːNa
-4.257943	cintaneː
-4.257943	cintayAːmAːsa
-3.713874	cintayan
-4.257943	cintayantaM
-4.257943	cintayanti
-4.257943	cintayatAː
-3.860003	cintayati
-4.257943	cintayati-eːtada
-4.257943	cintayatu
-4.257943	cintayatu,
-4.257943	cintayeːt.
-4.257943	cintayitvAː
-4.257943	cintitAːH
-3.860003	cintitavAːn
-4.257943	cintitavAːn-kSeːtrabanDeː$smin
-4.257943	cintitavAːn.
-4.081851	cintitavantaH
-4.257943	cintitavatIː.
-4.081851	cintitoː$Bavat
-4.257943	cipakoː-nAːmakamAːndoːlanaM
-4.257943	ciqikAːM
-4.257943	ciqikAːm
-4.257943	ciraM
-4.257943	ciraYjIːvinaH
-4.257943	ciram
-4.257943	ciramitram
-4.257943	cirarAːtrAːya
-4.257943	cirasaMgataM
-4.257943	citaH
-4.257943	citam
-4.081851	citrAːNAːM
-3.860003	citrAːNi
-4.257943	citrAːNyapi
-4.257943	citrEːH
-4.257943	citraM
-4.257943	citragrIːvaH
-4.257943	citragrIːveːNa
-4.257943	citragrIːvoː
-4.257943	citram
-4.257943	citramandiraM
-4.257943	citramayAːni
-4.257943	citrapaqeː
-4.257943	citravarNAːni
-4.257943	citrayantraM
-4.257943	citrayantreːNa
-3.956912	cittaM
-4.257943	cittam
-4.257943	cittazAːnti
-4.257943	coːdanAːvasareː
-4.257943	coːlatvaritayAːneːna
-4.081851	coːraBIːtiH
-3.713874	coːraH
-4.257943	coːraNIːyam
-4.257943	coːram
-4.257943	coːrayAːmi
-4.257943	coːttamarIːtyAː
-4.257943	cyutaH
-4.257943	cyutaM
-4.257943	dAːbakeː,
-4.081851	dAːmoːdaraH
-4.257943	dAːmoːdaraH-kAːliya!
-4.257943	dAːmoːdaraH.
-4.257943	dAːmoːdaroː$yaM
-4.081851	dAːnaM
-4.257943	dAːnam
-4.257943	dAːnarupeːNa
-4.257943	dAːnasamayeː
-4.257943	dAːnasya
-4.257943	dAːnavAː
-4.257943	dAːnavAːn
-4.081851	dAːnavAːnAːM
-4.081851	dAːnavEːH
-4.257943	dAːnavaBayaM
-4.257943	dAːpayiSyAːmaH
-4.257943	dAːrakaM
-4.257943	dAːridrayaM
-4.257943	dAːridrayavat
-4.257943	dAːrzanikAːni
-4.081851	dAːsyAːmi
-4.257943	dAːsyAːmi.
-4.081851	dAːtavyAː
-4.257943	dAːtavyAːni
-4.257943	dAːtavyaH
-4.081851	dAːtavyaM
-3.860003	dAːtavyam
-4.257943	dAːtavyam,
-4.257943	dAːtavyam.
-3.780821	dAːtuM
-4.257943	dEːnikaM
-4.257943	dEːvaBaktaH.
-4.257943	dEːveːna
-4.257943	dIːkSitAːH
-4.081851	dIːpAːH
-4.257943	dIːpAːnAː
-3.956912	dIːpAːnAːM
-4.081851	dIːpAːnAːm
-4.257943	dIːpAːvalIː
-4.257943	dIːpa
-4.257943	dIːpaprakAːzeː
-4.257943	dIːpasya
-4.081851	dIːptimAːn
-3.956912	dIːrGaM
-4.257943	dIːrGakAːyaH
-4.257943	dIːrGakarNoː
-4.257943	dIːyatAːmeːkamuttaram.
-4.081851	dIːyateː
-4.257943	dIːyateː.
-4.257943	dOː
-4.257943	dOːrBAːgyam.
-4.257943	dRRSqaH
-4.257943	dRRSqavAːn.
-4.257943	dRRSqvAː
-3.956912	dRSqAː
-4.081851	dRSqAː:
-4.081851	dRSqAːH
-4.257943	dRSqAːni
-4.257943	dRSqa
-3.860003	dRSqaH
-4.257943	dRSqaH.
-4.081851	dRSqaM
-4.081851	dRSqam
-4.257943	dRSqavAː
-3.713874	dRSqavAːn
-4.081851	dRSqavAːn.
-4.257943	dRSqavantOː
-4.081851	dRSqavantaH
-3.956912	dRSqavatIː
-4.257943	dRSqavatIː.
-4.257943	dRSqavata:
-4.257943	dRSqavataH
-4.257943	dRSqeː
-4.081851	dRSqeːH
-3.860003	dRSqiH
-4.257943	dRSqiM
-4.257943	dRSqisawkeːteːna
-4.257943	dRSquM,kadAːcit
-4.257943	dRSqum
-2.956913	dRSqvAː
-4.257943	dRSqvAː$hamatrAː$$gataH.
-4.257943	dRSqveːdamaBayaM
-4.257943	dRSqyAː
-4.257943	dRXa
-4.257943	dRXaH
-4.257943	dRXam
-4.257943	dRzyAːn
-4.257943	dRzyAːnAːM
-4.257943	dRzyaM
-4.257943	dRzyam
-4.257943	dRzyanteː
-3.558972	dRzyateː
-4.257943	dRzyateː.
-4.257943	dRzyeːta
-4.257943	dR|XatarAː
-4.257943	dUːSayati
-4.257943	dUːSitaM
-4.257943	dUːrAːpAːstaM
-4.081851	dUːrAːt
-4.257943	dUːrIː-kRtAːH
-4.257943	dUːrIː-kurvanti
-4.257943	dUːrIːkRtAːH.
-4.257943	dUːrIːkartuM
-4.081851	dUːrIːkurvanti
-4.257943	dUːraBAːSAːsaMKyAːpi
-4.257943	dUːraBAːSa-vAːyuyAːnAːdiBiH
-4.257943	dUːraBAːSayAː
-4.257943	dUːraBAːSeːNa
-3.780821	dUːraM
-4.257943	dUːradarzana-DvanivikSeːpaka-zIːtakEːtyAːdIːni
-4.257943	dUːradarzana-DvanivistAːraka-zIːtaka-ityAːdIːni
-4.257943	dUːradarzanasya
-4.081851	dUːradarzaneː
-4.257943	dUːragAːmIː
-4.257943	dUːrasTasya
-4.257943	dUːrataH
-4.257943	dUːravAːNIːM
-4.257943	dUːravAːcAː
-4.257943	dUːteː
-4.257943	daDIːceː
-3.860003	daDIːceːH
-3.956912	daDIːciH
-4.257943	daDi
-4.257943	daDimaTanaM
-4.257943	daDnaH
-4.257943	daNxa-kamaNxalu-mRgacarmAːdIːni
-4.257943	daNxaBAːginIː
-4.257943	daNxamAːdAːya
-4.257943	daNxamahati
-4.257943	daNxanIːyaH
-4.257943	daNxayAːmi
-4.257943	daNxayitum
-4.257943	daNxeːna
-3.60473	dadAːmi
-4.257943	dadAːni
-3.780821	dadAːti
-4.257943	dadAːti.
-4.081851	dadAːtu
-4.257943	dadAːtu,
-4.257943	dadyAːm.
-4.257943	dadyAːt
-4.257943	dadyuH
-4.257943	dagDavraNakiNAːH
-4.257943	dahyamAːnam
-4.257943	dakSaH
-4.257943	dakSiNAːYcaleː
-4.257943	dakSiNAːrUːpeːNa
-4.257943	dakSiNaBAːgavartinyAːm
-4.257943	dakSiNaBAːratIːyAːH
-4.257943	dakSiNaBAːrateː$pi
-4.257943	dakSiNaM
-4.257943	dakSiNadizAːyAːM
-4.257943	dakSiNapradeːzeː
-4.257943	dakSiNarAːjyasya
-4.257943	dakSiNeː
-4.257943	dakSiNeːna
-4.257943	dakSinaBAːrateː
-4.257943	dalaM
-4.257943	daleː
-4.257943	daleːna
-4.257943	dampatIː
-4.257943	dampatiByAːm
-4.257943	dantAːMsteː
-4.257943	darbAːraganDavirtikAː
-4.257943	daridrAːH
-4.257943	daridraH
-4.081851	daridrasya
-4.257943	daridratAːyAːH
-4.081851	darpeːNa
-4.257943	darzanAːrTaM
-4.257943	darzanIːyAː
-4.081851	darzanIːyAːni
-4.257943	darzanIːyam
-4.257943	darzanIːyeː
-4.257943	darzanaBAːgyaM
-4.081851	darzanaM
-4.257943	darzanam
-4.081851	darzanamAːtreːNa
-4.257943	darzaneː
-3.956912	darzaneːna
-4.081851	darzaya
-4.257943	darzayati
-4.257943	darzayati.
-4.081851	darzayitvAː
-4.257943	darzitaH
-3.956912	darzitavAːn
-4.257943	darzitoː
-4.257943	dattAː
-4.257943	dattAː.
-4.081851	dattAːni
-4.257943	dattaH
-3.860003	dattaM
-4.257943	dattam
-3.956912	dattavAːn
-4.257943	dattavatIː.
-3.860003	dattvAː
-4.081851	datvAː
-4.257943	dayAːM
-4.257943	dayAːloː
-3.860003	dayAːnandaH
-4.257943	dayAːnandaH.
-4.257943	dayAːyAː:
-4.257943	dazAː
-4.257943	dazAːDipRSVAːni
-4.081851	daza
-4.257943	dazadinAːni
-4.257943	dazaharIː,
-4.257943	dazalakSAːNi
-4.257943	dazamyAːM
-4.257943	dazamyAːmeːva
-4.257943	dazasahasraM
-4.257943	dazati
-4.257943	dazavAːraM
-4.257943	dazavarSAːNyAːsIːt
-4.257943	ddasyeːt,
-4.257943	ddazya
-4.257943	deːhAːvasAːnaBavat
-4.257943	deːhalIː-skUːla
-4.257943	deːhalIːsTaH
-3.956912	deːhi
-4.257943	deːhi.
-4.081851	deːvAː
-4.257943	deːvAːH
-4.257943	deːvAːlayAːH
-4.257943	deːvAːlayAːt
-4.257943	deːvAːlayaH
-4.081851	deːvAːlayeː
-4.257943	deːvAːn
-3.860003	deːvAːnAːM
-4.257943	deːvAːsurasaMgrAːmeː
-4.257943	deːvAːzca
-4.081851	deːvEːH
-3.956912	deːvIː
-4.257943	deːvIːm
-4.257943	deːvIːnAːM
-4.257943	deːvIːnAːm
-4.257943	deːvIːpratimAːH
-4.257943	deːvIːvastusvIːkaraNa-doːSeːNa
-4.081851	deːva
-4.257943	deːva-BUːmiH
-4.257943	deːvaBUːmirAːpi
-3.956912	deːvaH
-4.257943	deːvaM
-3.956912	deːvasvAːmIː
-4.257943	deːvasvAːminaH
-4.257943	deːveːndraH
-4.257943	deːvyAːH
-4.081851	deːyAːni.
-4.257943	deːya
-4.257943	deːyam
-4.257943	deːyapatrAːnusAːraM
-4.257943	deːzAːH
-4.257943	deːzAːn
-4.257943	deːzAːnAːM
-4.257943	deːzAːntaraM
-4.257943	deːzOː
-4.257943	deːzaBaktAːH
-3.713874	deːzaH
-4.257943	deːzaM
-4.257943	deːzapreːmasya
-4.081851	deːzaseːvAː
-4.081851	deːzaseːvAːyAːH
-3.354852	deːzasya
-4.081851	deːzayoːH
-3.860003	deːzeː
-4.257943	deːzeːSu
-4.257943	deːzoː$sti
-4.257943	dibanDu
-4.257943	digBrAːnta:
-4.257943	dilicandaH
-4.081851	dillIː
-4.257943	dillIːnagareː
-4.257943	dillIːvizvavidyAːlayasya
-4.257943	dinAːni
-4.257943	dinAːt
-3.956912	dinAːwkeː
-4.257943	dinapati-ravi-dinamaNi-Aːditya-BAːskara-dineːza-ityAːdIːni
-4.257943	dinazca
-3.51758	dineː
-4.081851	dineːByaH
-3.780821	dineːSu
-4.257943	dineːzasya
-4.257943	dipAːn
-4.257943	disambara-mAːsasya
-4.257943	disambaramAːsasya
-4.257943	divAːBIːtAːH
-4.257943	divaM
-4.257943	divaMgataH
-4.257943	divasAːH
-3.956912	divasaH
-3.382881	divaseː
-4.257943	divawgataH
-4.081851	divyAːni
-4.257943	divyaH
-4.081851	divyaM
-4.257943	dizAːyAːM
-4.257943	dizam
-4.257943	doːSAːn
-4.257943	doːSAːya
-4.257943	doːSa:
-4.081851	doːSaH
-4.257943	doːSoː
-4.081851	doːlAː
-4.257943	doːlAː.
-4.257943	drSquM
-4.257943	drSqum
-4.257943	draSqavyaH,
-3.780821	draSquM
-4.257943	draSqum
-4.257943	draSqum,
-4.257943	drakSyAːmi.
-4.257943	draviNaM
-4.257943	dravyaviSayeː
-4.257943	druSqum
-4.257943	dttva
-4.257943	du:KitaH
-4.257943	duBikSasya
-4.257943	duHKAːni
-4.257943	duHKAːya
-4.257943	duHKaBAːgBaveːt
-3.956912	duHKaM
-4.257943	duHKam
-4.081851	duHKasya
-4.081851	duHKeːna
-4.257943	duHKitAː
-4.257943	duHKitAːnAːM
-4.081851	duHKitaH
-4.257943	duHsmRtIːH
-4.257943	duKaM
-4.257943	duSkaraM
-4.081851	duSqAːH
-4.257943	duSqaH
-4.257943	duSqamahoːragakulAːvAːsaH.
-4.081851	duSqoː$si
-4.257943	duSyantaH
-3.956912	dugDaM
-4.257943	dugDadoːhanaM
-4.081851	dugDam
-4.081851	dugDasya
-4.257943	dugDeːna
-4.257943	dukUːlavastraM
-4.257943	dukUːlavastram
-4.081851	dukulavastraM
-4.257943	dukulazAːqikAː
-4.081851	dulIːcandaH
-4.257943	dulIːcandeː
-4.257943	dunoːti
-4.257943	durBikSAːNi
-4.257943	durBikSaM
-4.257943	durBikSamAːpadyata
-4.081851	durGaqanAː
-4.257943	duraBAːSazabdeːna
-4.257943	durbalAːnAːm
-3.956912	durgAː
-4.081851	durgAːpUːjAː
-4.257943	durgAːpUːjAːyAːH
-3.860003	durgAːyAːH
-4.081851	duritAːni
-4.257943	durjanaH
-4.257943	durlaBaH
-4.257943	durlaBaM
-4.257943	durlaBam.
-4.257943	durlaBoː
-4.257943	durlalitAːyAːsmEː
-4.257943	dussAːhasam
-4.257943	dussAːhaseːna.
-4.257943	dussahanIːyam
-4.257943	dvAːdazasu
-4.257943	dvAːdazavAːdaneː
-4.257943	dvAːdazavarSIːyaH
-4.257943	dvAːdazeː
-4.257943	dvAːrAː
-4.257943	dvAːrapAːlaH
-4.081851	dvAːrapAːlakaH
-4.257943	dvAːrapAːlakaM
-3.780821	dvAːrapAːlakasya
-4.257943	dvAːrapAːleːna
-4.257943	dvAːveːtOː
-4.257943	dvAːviMzaH
-4.257943	dvAːviMzatamaH
-4.257943	dvAːviMzatitamyAːM
-3.558972	dvOː
-4.081851	dvayam
-4.257943	dvayoːH
-3.479791	dveː
-4.257943	dveːSaM
-4.257943	dveːaSqa
-4.257943	dveːzUːnyamzUːnyampaYca.
-3.956912	dveːzUːnyamzUːnyamzUːnyam
-4.257943	dviguNitaH
-4.257943	dviguNitaM
-4.257943	dvijaH
-4.257943	dvijaputrasya
-3.780821	dvitIːyAː
-4.257943	dvitIːyAː-
-4.257943	dvitIːyAːtapasvinIː
-4.257943	dvitIːyAːyAːH
-4.081851	dvitIːyAːyAːM
-4.257943	dvitIːya:
-3.780821	dvitIːyaH
-4.081851	dvitIːyaM
-4.257943	dvitIːyapraznasyoːttaram-nikaqasTaH
-4.257943	dvitIːyasya
-4.257943	dvitIːyeː
-4.257943	dvitravAːram
-4.257943	dvivAːraM
-4.257943	dvivarSIːyaH
-4.257943	dyAːvAːpRTivIː
-4.257943	dyoːtayituM
-4.257943	eːDateː
-3.067611	eːSAː
-4.257943	eːSAː.
-3.178761	eːSa
-4.081851	eːSa:
-2.842969	eːSaH
-4.257943	eːSaH.
-4.257943	eːSoː$pi
-4.257943	eːSoː$tIːva
-3.860003	eːSu
-4.081851	eːhi
-3.412844	eːkAː
-4.257943	eːkAːBiprAːyaH
-3.780821	eːkAːM
-4.257943	eːkAːdaza
-4.257943	eːkAːgratAː
-4.257943	eːkAːgratAːM
-3.860003	eːkAːkIː
-4.257943	eːkAːm
-4.081851	eːkEːkaM
-4.257943	eːkEːkam
-4.257943	eːkEːkasmEː
-4.257943	eːkEːkasyAː:
-4.081851	eːkEːkazca
-4.257943	eːkEːkoː$pi
-4.257943	eːkEːva
-3.956912	eːka
-2.935723	eːkaH
-3.3037	eːkaM
-4.257943	eːkabudDiH
-4.257943	eːkabudDiH.
-4.257943	eːkabudDirnAːma
-3.111814	eːkadAː
-4.257943	eːkakaNVeːna
-4.257943	eːkakinIː
-3.445029	eːkam
-4.257943	eːkam.
-4.257943	eːkamAːtraM
-4.257943	eːkamaSqa
-4.081851	eːkamaSqaSaqnava
-4.257943	eːkamaSqaSaqtriNi
-4.257943	eːkamaSqaSaqzUːnyam
-4.257943	eːkamaSqaSaqzUːnyamtameː
-4.257943	eːkamaSqaaSqacatvAːri
-4.257943	eːkamaSqaaSqatriNi
-4.257943	eːkamaSqaaSqatriNitameː
-4.257943	eːkamaSqanavazUːnyam
-4.257943	eːkamaSqapaYcasapta
-4.257943	eːkamaSqapaYcasaptatameː
-4.257943	eːkamaSqasaptanava
-4.257943	eːkamaSqasaptazUːnyam
-4.257943	eːkamcatvAːri
-4.257943	eːkameːva
-4.081851	eːkamnavaSaqtriNi
-4.257943	eːkamnavaSaqtriNi-saptaeːkam
-4.257943	eːkamnavaaSqaaSqa
-4.257943	eːkamnavaaSqadveː
-4.257943	eːkamnavacatvAːridveː
-3.780821	eːkamnavacatvAːrisapta
-4.257943	eːkamnavacatvAːritriNi
-4.257943	eːkamnavadveːdveː
-4.257943	eːkamnavadveːeːkam
-4.257943	eːkamnavaeːkamsapta
-4.257943	eːkamnavanavaSaq
-4.257943	eːkamnavanavaaSqa
-3.956912	eːkamnavanavacatvAːri
-4.257943	eːkamnavanavadveː
-4.257943	eːkamnavanavatriNi
-4.257943	eːkamnavanavazUːnyam
-4.257943	eːkamnavapaYcaSaq
-4.257943	eːkamnavapaYcaaSqa
-4.257943	eːkamnavapaYcapaYca
-4.257943	eːkamnavapaYcazUːnyam
-4.257943	eːkamnavasaptaaSqa
-4.257943	eːkamnavasaptadveː
-4.257943	eːkamnavasaptapaYca
-4.257943	eːkamnavasaptatriNi
-4.257943	eːkamnavatriNicatvAːri
-4.257943	eːkamnavatriNieːkam
-4.257943	eːkamnavatriNitriNi
-4.257943	eːkamnavatriNizUːnyam
-4.257943	eːkamnavazUːnyamcatvAːri
-4.257943	eːkamnavazUːnyamzUːnyam
-4.081851	eːkampaYca
-4.257943	eːkamupAːyaM
-3.257942	eːkasmin
-4.257943	eːkasmina
-4.257943	eːkastu
-4.081851	eːkasyAːM
-3.860003	eːkasya
-4.257943	eːkatAː
-4.257943	eːkataH
-4.257943	eːkavAːdanaveːlAːyAːM
-3.956912	eːkavAːraM
-4.257943	eːkavAːram,
-4.257943	eːkaveːNIːDarAː
-4.257943	eːkaviMzaH
-4.257943	eːkaviMzati-varSIːyaH
-4.257943	eːkaviMzativarSIːyaH
-4.257943	eːkeːn
-4.081851	eːkeːnEːva
-4.257943	eːkeːna
-3.956912	eːkoː
-4.257943	eːkoːnAːmiksa-nAːmakeː
-4.257943	eːkoːnaviMzatitameː
-4.257943	eːnEːneːva
-4.257943	eːnaM
-4.081851	eːsa
-4.257943	eːtAː
-4.257943	eːtAːByAːM
-4.257943	eːtAːByAːm
-3.860003	eːtAːH
-4.081851	eːtAːM
-4.257943	eːtAːdRRzasya
-4.081851	eːtAːdRzAːni
-3.780821	eːtAːdRzIː
-3.956912	eːtAːdRzIːM
-4.081851	eːtAːdRzaM
-3.956912	eːtAːdRzam
-4.257943	eːtAːdRzasya
-4.257943	eːtAːdRzeːBya:
-4.257943	eːtAːdRzyAːM
-4.257943	eːtAːmanukurvantaH
-4.257943	eːtAːn
-3.257942	eːtAːni
-4.081851	eːtAːni.
-4.257943	eːtAːsAːM
-4.257943	eːtAːsAːm
-4.257943	eːtAːsu
-4.081851	eːtAːvAːn
-4.257943	eːtAːvadeːva
-3.780821	eːtAːvat
-4.257943	eːtAːvatAː
-4.257943	eːtAːvatIː
-4.257943	eːtAːvatyAː
-3.956912	eːtEːH
-3.713874	eːtOː
-3.713874	eːtaM
-3.655882	eːtad
-4.257943	eːtadAːkarNya
-4.257943	eːtadanantaraM
-4.257943	eːtadanantaram
-4.257943	eːtadapi
-3.956912	eːtadarTaM
-4.257943	eːtadatiriktaM
-4.257943	eːtadeːva
-4.257943	eːtaduktva
-4.257943	eːtadviSayeː
-3.956912	eːtam
-4.257943	eːtasmAːd
-3.382881	eːtasmAːt
-3.558972	eːtasmin
-4.257943	eːtasminneːva
-4.081851	eːtasyAːH
-4.257943	eːtasyAːM
-4.257943	eːtasyEːva
-3.21655	eːtasya
-4.257943	eːtasyoːpari
-2.834697	eːtat
-4.257943	eːtatkRteː
-4.257943	eːtatkaTayituM
-4.257943	eːtatsambanDinIː
-4.081851	eːtayAː
-4.257943	eːtayoːrvivAːdeːna
-3.382881	eːteː
-4.081851	eːteːSAːM
-4.257943	eːteːSu
-4.257943	eːteːat
-3.51758	eːteːna
-4.257943	eːvAː$smi
-4.257943	eːvAːBavan
-4.257943	eːvAːBavat
-4.081851	eːvAːsti
-4.081851	eːvAːsya
-2.159299	eːva
-4.257943	eːva,
-3.713874	eːva.
-3.161032	eːvaM
-4.257943	eːvaMBUːteː
-4.257943	eːvaMprakAːreːNa
-3.51758	eːvam
-4.081851	eːvameːva
-4.257943	eːvamuktavati
-4.257943	eːxisanamahoːdayaH
-4.257943	eːziyAː-krIːxAː-pratiyoːgitAːvasareː
-4.257943	gAːDimahoːdayaH
-4.257943	gAːXoː
-4.257943	gAːmBIːryaM
-4.257943	gAːmBIːryam,
-4.257943	gAːmBIːryeːNa
-4.257943	gAːnAːvasareː
-3.860003	gAːnDIː
-4.257943	gAːnDIː,
-4.257943	gAːnDIː-suBAːSAːdayaH
-4.257943	gAːnDi-mahoːdayeːna
-4.257943	gAːnDimahoːdasya
-4.081851	gAːnDimahoːdayasya
-4.257943	gAːnDinAː
-4.257943	gAːnDinaH
-4.257943	gAːtavyam
-4.257943	gAːtrasaMsargeːNa
-4.257943	gAːya
-4.257943	gAːyanti
-4.257943	gAːyanti.
-4.081851	gAːyati
-4.257943	gAːyati,
-4.257943	gAːyatrIː
-4.257943	gAːyatrIːmantraH
-4.257943	gEːsa-inDanam,
-3.655882	gIːtAː
-4.257943	gIːtAː,
-4.257943	gIːtAːpAːrAːyaNAːya
-4.257943	gIːtAːpaVanaM
-4.257943	gIːtAːpustakAːni
-4.081851	gIːtAːvAːcanaM
-4.257943	gIːtAːvAːcanakartrya:
-4.257943	gIːtAːvAːcanasya
-4.257943	gIːtAːvacanam
-4.257943	gIːtAːvadat-heː
-3.860003	gIːtAːyAː:
-4.257943	gIːtAːyajYazEːlIːm
-4.257943	gIːtAːyajYeː
-3.956912	gIːtam
-4.257943	gIːtam.
-4.257943	gIːtavat
-4.257943	gIːtayoːktam-zrIːman!
-4.257943	gOːrIː-
-4.257943	gOːraH
-4.257943	gOːravaBAːvaM
-4.257943	gOːravaM
-4.081851	gOːravam
-4.257943	gOːravamayaM
-4.257943	gOːtamaH
-4.081851	gOːtamasya
-4.257943	gRDraH
-4.257943	gRDramAːrjAːra
-4.257943	gRDrasya
-4.257943	gRDroː$vadat-mAːrjAːrAːH
-4.257943	gRhAːNAːm
-4.257943	gRhAːNa
-4.081851	gRhAːNi
-4.257943	gRhAːNi,
-4.081851	gRhAːd
-4.257943	gRhAːsyAːnta:
-3.655882	gRhAːt
-3.956912	gRhIːtAːni
-4.257943	gRhIːtam
-4.081851	gRhIːtavantaH
-4.257943	gRhIːtuM
-3.713874	gRhIːtvAː
-4.257943	gRhIːtvAː,
-3.956912	gRhNAːti
-4.257943	gRhNAːti.
-4.081851	gRhNantu
-4.257943	gRhaBAːgeː
-4.081851	gRhaBAːgeːSu
-3.3037	gRhaM
-4.257943	gRhaM,
-3.780821	gRhadAːhasya
-4.257943	gRhagoːDikAː
-4.257943	gRhajanEːH.
-4.257943	gRhakAːryaM
-4.257943	gRhakAːryanimittaM
-3.51758	gRham
-4.081851	gRham.
-4.257943	gRhamadahat.
-4.257943	gRhamagacCat
-4.257943	gRhameːva
-3.780821	gRhapAːlaH
-4.257943	gRhapAːlaM
-3.655882	gRhapAːlasya
-4.257943	gRhapAːlazca
-4.257943	gRhapAːloː
-4.257943	gRhasTa
-4.257943	gRhasaMKyAː
-4.257943	gRhasamIːpasTAː:
-4.257943	gRhasamIːpasTAːt
-3.558972	gRhasya
-4.257943	gRhataH
-3.382881	gRheː
-4.257943	gRheː.
-4.081851	gRheːSu
-4.257943	gRhiNIː
-4.257943	gRhitAː
-4.257943	gRhitvAː
-4.257943	gRhyAːtAːm
-4.257943	gRhyatAːm
-4.257943	gRhyateː.
-4.257943	gaMgAː,
-4.257943	gaMgAː-yamunAː-zatadru-vipAːzAː-irAːvatIː-vitastAː-praBRtayaH
-4.257943	gaNayati
-4.257943	gaNayiSyeː.
-4.081851	gaNayitum
-4.257943	gaNayitvAː
-4.257943	gaNitavAːn
-4.257943	gacCAːma.
-4.257943	gacCAːmaH.
-3.558972	gacCAːmi
-4.257943	gacCAːva
-3.655882	gacCa
-4.257943	gacCaTa.
-4.257943	gacCan
-4.081851	gacCantaM
-3.60473	gacCanti
-4.257943	gacCanti.
-4.257943	gacCasi
-4.257943	gacCat
-4.081851	gacCatAː
-4.257943	gacCatAːM
-4.257943	gacCataH
-4.081851	gacCataH.
-3.956912	gacCati
-4.257943	gacCatsu
-3.956912	gacCatu
-4.257943	gacCatu,
-4.257943	gacCtsu
-4.257943	gacgCan
-4.257943	gajaH
-4.257943	gajaH,
-4.257943	gajaM
-4.257943	gajapAːdEːH
-4.257943	gajayUːTapateːH
-4.257943	gajayUːTeːna
-4.257943	gajayUːToː
-4.257943	gamanAːgamanamakaroːt
-4.257943	gamanaM
-4.257943	gamanasya
-4.257943	gamiSyAːmaH
-3.860003	gamiSyAːmi
-4.081851	gamiSyasi
-4.257943	gamyateː
-4.257943	gantavyaM
-3.956912	gantavyam
-3.956912	gantuM
-4.257943	gantukAːmaH
-4.257943	gantukAːmoː$smi
-4.081851	gantum
-4.257943	gantumicCataH
-4.257943	garBagRhAːnta:
-4.257943	garBajAːtaH
-4.257943	gardaBadvayaM
-4.257943	gardaBasya
-4.257943	garjanti
-4.257943	garjataH.
-4.081851	garuwAːdaBayaM
-4.257943	garvaH
-4.257943	garvam
-4.081851	garveːNa
-4.257943	garvitaH.
-4.081851	gatAː
-4.257943	gatAː.
-4.257943	gatAːn
-4.257943	gatOː
-4.257943	gata:
-4.257943	gata:.
-3.713874	gataH
-4.257943	gataH.
-4.257943	gatasaptAːhAːt
-4.257943	gatavAːm
-3.51758	gatavAːn
-4.081851	gatavAːn.
-4.257943	gatavarSAːt
-4.257943	gatavarSeː
-4.257943	gatavatIː
-4.081851	gatavatIː.
-4.257943	gatavatIːM
-3.860003	gateː
-4.257943	gati:
-4.257943	gatiH
-4.257943	gatiH.
-4.257943	gatiroːDakasya
-4.257943	gatizIːlAːnAːM
-3.143999	gatvAː
-4.257943	gatvAː-
-4.257943	gatyAː
-4.257943	gatyantarAːBAːveːna
-4.257943	gawAː
-4.257943	gawAːyAːH
-3.60473	gawgAː
-4.257943	gawgAː-yamunAː-zatadru-vipAːzAː-irAːavatIː-vitastAː-praBRtayaH
-4.081851	gawgAːM
-4.257943	gawgAːjalaM
-4.257943	gawgAːjalam
-4.257943	gawgAːm
-3.60473	gawgAːyAːH
-4.257943	gawgAːyAːM
-4.257943	girim
-3.956912	goːDUːmacUːrNaM
-4.257943	goːDUːmacUːrNeːna
-4.257943	goːSVIː
-4.257943	goːlAːdvayaM
-4.257943	goːlAːkAːrAːH
-4.257943	goːlAːkAːrAːH.
-4.257943	goːlAːni
-3.780821	goːlaM
-4.257943	goːladvayaM
-4.257943	goːlakaraNasya
-4.257943	goːpakanyakAːH
-4.257943	goːpayitvAː
-4.257943	goːpeːzvaranAːmni
-4.257943	goːpitavAːn
-4.257943	goːsahasraM
-4.257943	goːvarDanaxEːrIːtaH
-3.956912	goːvindaH
-4.257943	goːvindaparivAːraH
-4.257943	grAːmAːNAːmapi
-4.081851	grAːmIːNAːH
-4.081851	grAːma
-4.257943	grAːmaH
-4.257943	grAːmaH,
-3.860003	grAːmaM
-4.257943	grAːmajanAːH
-4.257943	grAːmasya
-3.479791	grAːmeː
-4.257943	grAːmeː$Bavat
-4.081851	grAːmeːSu
-4.257943	grIːSmAːt
-4.257943	grIːSma-kAːleː
-4.081851	grIːSmaH,
-4.257943	grIːSmakAːlIːnAː
-4.257943	grIːSmakAːleː
-4.257943	grIːSmasya
-4.257943	grahIːSyati
-4.257943	grahIːtuM
-4.257943	grahIːtum
-4.257943	grahaNaM
-4.257943	grahituM
-4.081851	granTAːH
-4.257943	granTasya
-4.081851	granTeː
-4.257943	guNAːH
-4.257943	guNAːn
-3.956912	guNaH
-4.081851	guNakaram
-4.257943	guNameːlanaM
-4.257943	guNavatIː
-4.081851	guYjanti
-4.257943	gucCakasya
-4.257943	guhAːsu
-4.257943	gujarAːtapradeːzeː
-4.257943	gulikAː
-4.257943	gulikAːcakreːNa
-4.081851	gulikayAː
-4.257943	gupatarupeːNa
-4.257943	guptarupeːNa
-4.081851	gurUː
-4.081851	gurUːBaktaH
-4.257943	gurUːBaktyAː
-4.081851	gurUːH
-4.257943	gurjararAːjyasya
-4.257943	gurjararAːjyeː
-4.081851	guroːH
-4.257943	guruH
-4.257943	guruNAː
-4.257943	gurudeːveːna
-4.081851	gurunAːnakaH
-4.257943	gurunAːnakasamIːpam
-4.257943	gurunAːnakasya
-4.257943	gurunAːnkaH
-4.257943	guruprasAːdaM
-4.257943	gururbrahmAː
-4.257943	gururdeːvoː
-4.257943	gururviSNuH
-4.257943	guruseːvanapaquH
-4.257943	gurutarupeːNa
-4.257943	guruvAːsareː
-4.257943	guxasya
-4.257943	gvAːliyaranagareː
-3.956912	hAː
-4.257943	hAːhAːkAːraH
-4.257943	hAːlEːNda-
-4.257943	hAːlEːNxadeːzasya
-4.257943	hAːnayoː$pi
-4.257943	hAːni:
-3.780821	hAːniH
-4.257943	hAːnim.
-4.257943	hAːrdikaH
-4.257943	hAːrvarxanAːmni
-4.081851	hAːsaM
-4.081851	hIː
-3.860003	hRdayaM
-4.257943	hRdayamAːvarjayanti
-3.655882	hRdayeː
-4.257943	hRdyaM
-4.257943	haMsAːH
-4.257943	haMsasya
-4.257943	halasahitAːn
-4.257943	hallIːsakaM
-4.257943	hanta
-4.257943	hanti
-4.257943	hantuM
-4.257943	hanumatpuraM
-4.257943	hanyateː
-4.257943	haqqaM
-4.257943	harSaBaritaH
-4.257943	harSeːNa
-4.257943	harSoːtfullaH
-4.257943	haraH
-4.081851	haragoːvindaKurAːnAː,madara-qeːreːsAː
-4.081851	harati
-4.081851	hariH
-4.081851	haridvAːra-RSikeːSa-prayAːga-vAːrAːNasIː-ityAːdIːni
-4.257943	harirna
-3.860003	harisiMhadeːvaH
-4.257943	haritAːni
-4.257943	haritEːrGAːsEːH
-4.257943	haritavarNAːH.
-4.257943	hariyAːNAː-pradeːzsya
-4.257943	hasabanIːsa
-4.257943	hasantIː
-4.257943	hasanti.
-4.257943	hasati.
-4.257943	hastAːkSaraM
-4.081851	hastAːt
-4.257943	hastOː
-3.956912	hastaM
-4.257943	hastagatam
-4.257943	hastakOːzalEːH
-4.257943	hastakampanam
-4.257943	hastam
-4.257943	hastaprasAːraNaM
-4.257943	hastasAːmudrikAːpaNxitAːH.
-4.257943	hastataH
-4.257943	hastayituM
-4.257943	hastayoːH
-3.860003	hasteː
-4.257943	hasteːn
-4.081851	hasteːna
-4.257943	hastinaH
-4.257943	hastirAːjaH
-4.257943	hatavAːn
-4.081851	hatavantaH
-4.257943	hatavatIː
-4.081851	hatvAː
-4.257943	hatyAːkAːNxaH
-4.257943	havanaM
-3.655882	heː
-4.257943	heːSAːraveːNa
-4.257943	heːheː.
-4.081851	heːmantaH,
-3.956912	heːtoːH
-3.956912	heːtuH
-4.257943	heːtumAːtmAːnam
-4.257943	heːtunAː
-3.60473	hi
-4.257943	hiMsAː
-4.257943	himAːlatyaH
-4.081851	himAːlayAːt
-4.257943	himAːlaya
-3.956912	himAːlayaH
-4.257943	himAːlayapradeːzavAːsiByaH
-3.956912	himAːlayasya
-4.257943	himAːlayeː
-4.081851	himAːlayoː
-4.257943	himagiriziKarAːdapi
-4.257943	himalayapradeːzasya
-3.860003	himasya
-4.257943	himasyoːpari
-3.860003	himeːna
-4.257943	hindUː
-4.257943	hindUːmagnaM
-4.081851	hindUːnAːM
-4.257943	hindUːpatrikAːm
-4.257943	hindamahAːsAːgaraH
-4.257943	hiraNyakaH
-4.257943	hiraNyakasya
-3.956912	hitAːya
-4.257943	hitaH.
-4.257943	hitaM
-4.257943	hitameːva
-4.081851	hradaM
-4.257943	hradayaM
-4.257943	hsteː
-3.780821	hyaH
-4.257943	iMgalEːNxa-deːzeː
-4.257943	iMglEːMxadeːzaM
-4.257943	iMglEːNxa-deːzamagacCat
-4.257943	iNqaraneːqamAːDyameːna
-4.257943	iNqreːnsa
-4.257943	iNxiyan
-4.257943	iSqAːniSqam
-4.257943	iSqaH
-4.081851	iSqavAːn
-4.257943	iSqavantaH
-4.257943	iSqavatIː
-3.780821	icCAː
-3.956912	icCAːmi
-4.257943	icCAːmi.
-4.257943	icCAːpatraM
-4.257943	icCAːzaktiH
-4.257943	icCami
-4.257943	icCan
-4.257943	icCanti
-4.257943	icCasi
-4.257943	icCasi.
-4.257943	icCataH
-3.713874	icCati
-4.257943	icCati,
-4.257943	icCati.
-3.354852	idAːnIːM
-3.558972	idAːnIːm
-4.081851	idAːnIːm.
-4.257943	idAːnIːmatIːva
-4.257943	idAːnIːmeːva
-4.257943	idAːnim
-4.257943	idRzaM
-3.655882	idaM
-3.956912	idam
-4.257943	idam.
-4.257943	idamAːha-
-4.257943	idamajYAːnataH
-4.257943	idamasti
-4.257943	idamidAːnIːM
-4.257943	iha
-4.081851	ikSUːNAːM
-4.257943	ilAːhAːbAːda
-4.081851	imAːM
-4.081851	imAːm
-4.257943	imAːni
-4.257943	imEːnuala
-4.257943	imOː
-3.956912	imaM
-3.956912	imam
-4.257943	imeː
-4.257943	inazca
-4.257943	indirAːM
-4.257943	indraH
-4.257943	indradarzanAːrTaM
-4.257943	inqaraneːqa-
-4.257943	insqIːqyUːqanAːmni
-4.257943	ipi
-4.081851	itTaM
-4.257943	itTam
-4.257943	ita
-4.257943	ita:
-4.081851	itaH
-4.257943	itarasahapAːVinIːnAːM
-4.257943	itastata:
-3.60473	itastataH
-2.135726	iti
-3.280219	iti.
-4.257943	itiBiDAːnamapi
-4.257943	itieːkaM
-4.257943	itihAːsaH
-4.257943	itihAːsaM
-3.860003	itihAːsasya
-4.257943	itivat
-4.257943	itivat.
-3.956912	itoː
-4.257943	itoː$pi
-4.257943	ittarAːn
-4.081851	ityAːdIːnAːM
-4.081851	ityAːdIːni
-4.257943	ityAːdaya:
-4.081851	ityAːdayaH
-4.257943	ityAːdi
-4.257943	ityAːrUːNiH
-4.257943	ityAːtmAːnamavaSqaByam.
-4.257943	ityaBiDIːyateː
-4.257943	ityaDaraM
-4.257943	ityaneːna
-4.257943	ityapi
-4.257943	ityata:
-4.257943	ityataH
-4.257943	ityatra
-4.257943	ityavagataM
-4.257943	ityeːtAːm
-4.257943	ityeːtasya
-4.257943	ityeːtat
-4.081851	ityeːteː
-4.081851	ityeːvaM
-4.257943	ityuccAːrayan
-4.257943	ityuktavAːn
-4.257943	ityukteː
-3.860003	ityuktvAː
-4.257943	ityupAːDiM
-4.257943	ivAːBAːti.
-4.257943	ivAːsti
-3.067611	iva
-4.257943	iva.
-4.257943	iwgiteːna
-3.655882	iyaM
-4.081851	iyam
-4.257943	iyameːkAː
-4.081851	iyameːva
-4.257943	jAːdavapuravizvavidyAːlayeː$DyAːpanaM
-4.257943	jAːgarUːkAː
-4.081851	jAːgarUːkAːH
-4.257943	jAːgarUːkaH
-4.257943	jAːgarti
-4.257943	jAːlAːkAːrOː
-3.860003	jAːlaM
-4.257943	jAːlabadDAːH
-4.257943	jAːlamAːdAːya
-4.257943	jAːlamakRntat
-4.257943	jAːlasya
-4.257943	jAːlasyoːpari
-3.780821	jAːleː
-4.081851	jAːliyan~vAːlAː-
-4.257943	jAːmUːnaKAːdyaM
-4.257943	jAːmitAː
-3.860003	jAːnAːmi
-3.956912	jAːnAːsi
-4.257943	jAːnAːsyeːva
-3.558972	jAːnAːti
-4.257943	jAːnAːti.
-4.257943	jAːnanti
-4.257943	jAːneː
-4.257943	jAːnuByAːM
-3.558972	jAːtAː
-4.257943	jAːtAː,
-4.257943	jAːtAːBiH
-4.257943	jAːtAːH
-4.257943	jAːtOː
-3.860003	jAːta:
-4.257943	jAːta:.
-3.21655	jAːtaH
-4.257943	jAːtaH,
-4.257943	jAːtaH-vilakSaNaH
-3.655882	jAːtaH.
-4.257943	jAːtaM
-4.257943	jAːtakarmasamayeː
-3.655882	jAːtam
-4.257943	jAːti
-3.956912	jAːyateː
-4.257943	jAːyateː.
-4.257943	jIːpayAːnaM
-4.257943	jIːpayAːnam
-4.257943	jIːpyAːnaM
-4.257943	jIːrNAːni
-4.257943	jIːrNaM
-4.257943	jIːvanAːya
-3.382881	jIːvanaM
-4.257943	jIːvanadAːnaM
-3.956912	jIːvanam
-4.257943	jIːvanamantrOː
-4.257943	jIːvanaparyantam
-4.257943	jIːvanarakSAː
-3.780821	jIːvanasya
-4.257943	jIːvanayAːpanaM
-3.445029	jIːvaneː
-4.081851	jIːvanti
-4.081851	jIːvati
-4.257943	jIːvati,
-4.257943	jIːvatu
-4.257943	jIːvayati,
-4.257943	jIːveːyam.
-4.257943	jIːvitaH,
-4.257943	jIːvitaM
-4.081851	jIːvituM
-4.257943	jRmBaNaM
-4.257943	jUːna
-4.257943	jUːnamAːsasya
-4.257943	jYAːnAːt
-4.081851	jYAːnaM
-4.257943	jYAːnam
-4.257943	jYAːnamapi
-4.257943	jYAːnapradAːnaM
-4.257943	jYAːnasya
-4.257943	jYAːnoːdayaH
-4.257943	jYAːpayAːmaH
-4.081851	jYAːpayituM
-4.257943	jYAːtAːni
-4.257943	jYAːtaH.
-4.081851	jYAːtaM
-4.081851	jYAːtam
-4.257943	jYAːtavAːn
-4.257943	jYAːtavatIː
-4.257943	jYAːtavatIː.
-4.257943	jYAːtavyaH,
-4.081851	jYAːtuM
-3.558972	jYAːtvAː
-4.081851	jagAːma
-4.081851	jagajjananIː
-4.257943	jaganmAːtuH
-4.257943	jagat
-4.257943	jagataH
-3.780821	jagati
-4.257943	jaharti
-4.257943	jajasya
-4.257943	jalAːBeːdOː
-4.257943	jalAːplAːvaH
-4.257943	jalAːt
-4.257943	jalAːvaroːDaM
-4.081851	jalAːzayAːt
-4.257943	jalAːzayaM
-4.081851	jalAːzayam
-4.257943	jalAːzayasya
-3.713874	jalAːzayeː
-4.257943	jala-saYcayam
-3.328523	jalaM
-4.257943	jalaM,
-4.257943	jalacarAːn
-3.558972	jalam
-4.257943	jalamAːneːtuM
-4.257943	jalamagnAːH
-4.257943	jalamavarudDya
-4.257943	jalaniDiH
-4.257943	jalapAːtraM
-4.257943	jalapUːrNaM
-4.257943	jalapakSIː
-4.257943	jalaplaveːna
-4.257943	jalasTasya
-4.257943	jalasaYcayaM
-4.257943	jalaseːtoːH
-4.257943	jalastaraH
-3.780821	jalasya
-4.257943	jalasya,
-4.257943	jalavRdDiH
-4.257943	jalaveːgeːna
-4.081851	jalavihAːraM
-4.257943	jalavyavasTAː
-3.655882	jaleː
-3.780821	jaleːna
-4.257943	jaliyAːMvAːlAːbAːga
-4.257943	jamBIːraparimAːNakaM
-4.257943	jamBRsva
-4.081851	janAː
-4.081851	janAː:
-3.00267	janAːH
-3.780821	janAːn
-3.713874	janAːnAːM
-4.257943	janAːnAːm
-4.257943	jana
-3.780821	janaH
-4.081851	janagaNamana
-4.257943	janaka-mahAːrAːjaH
-4.257943	janakamahAːrAːja!
-3.713874	janakamahAːrAːjaH
-4.257943	janakamahAːrAːjasya
-4.257943	janakamahAːrAːjeː
-4.081851	janakasya
-4.257943	jananIː
-4.257943	janapriyam
-4.257943	janasAːDAːraNasya
-4.257943	janasamUːheː
-4.257943	janasamudraM
-4.257943	janaseːvAːmakaroːt
-4.257943	janastroːtaH
-4.081851	janasya
-4.257943	janavarIːmAːsasya
-4.257943	janayati,
-4.081851	janeːByaH
-3.956912	janeːSu
-3.382881	janma
-4.257943	janmadAːtryAːH
-4.257943	janmadinam
-4.257943	janmadivasaH
-3.860003	janmani
-4.257943	janmasTAːnaM
-4.257943	janmasTAːnam
-4.257943	japAːtapoːjaqAːdikaM
-4.257943	jaqAːBiH
-4.081851	jaqAːByaH
-4.257943	jaqAːsamBAːrAːt
-4.081851	jaqAːsamBAːraH
-4.257943	jaqAːsu
-4.257943	jarAːBayaM
-4.257943	jaradgavAːya
-4.081851	jaradgavaH
-4.257943	jaradgavaM
-4.257943	jaradgavoː
-4.257943	jarmanIː
-4.257943	jaseːcanaM
-4.257943	javAːharalAːlaH
-4.257943	javAːharalAːlaneːharUːkrIːxAːprAːwgaNamagacCat
-4.257943	javanikAː:
-4.257943	jayantaH
-3.956912	jayateː
-4.257943	jayati
-3.956912	jayatu
-4.257943	jayti
-4.257943	jiMdeːnamahoːdayaH
-4.257943	jigamiSuH
-4.257943	jirAːdeːIː
-4.257943	jitavAːn
-4.257943	jitvAː
-4.257943	julAːIː
-4.257943	julAːIːmAːsayoːH
-4.081851	jurAːsikapAːrka
-4.257943	jvAːlitAː
-4.257943	jvAːlitAːn
-4.257943	jvalanti
-4.257943	jvalataH
-4.081851	jvalati
-4.257943	jvalati.
-4.257943	jvalayitum
-4.257943	jvaliteː
-4.257943	jvara:
-4.257943	jvaraH
-4.257943	jyeːSVAː
-4.257943	jyeːSVaH
-4.257943	jyeːSVamAːsaH
-4.257943	jyeːSVoː
-3.354852	kAː
-3.956912	kAː.
-4.081851	kAːH.
-4.257943	kAːMkSitam
-4.257943	kAːMsyapadakaM
-4.081851	kAːMsyapadakam
-4.257943	kAːMzcit
-4.081851	kAːNxeː
-4.257943	kAːPIːcUːrNaM
-4.257943	kAːPIːxipoːtaH.
-4.257943	kAːSAːyavastraM
-4.257943	kAːSVavastUːni
-4.257943	kAːViyAːvAː|xaprAːntasya
-4.257943	kAːViyAː|xa-prAːntasya
-4.257943	kAːYcit
-4.257943	kAːcaka
-4.257943	kAːcakaH
-3.956912	kAːcit
-4.257943	kAːkAːH
-3.956912	kAːkaH
-4.257943	kAːkaM
-4.257943	kAːkarAːja
-4.081851	kAːkoːrIː
-4.257943	kAːlAːd
-4.257943	kAːlAːnantaraM
-4.257943	kAːlAːnantaram
-4.257943	kAːlAːntareː
-4.257943	kAːlAːrDeː
-4.257943	kAːlAːt
-4.257943	kAːlIːyaM
-3.956912	kAːla
-4.257943	kAːla-anantaram
-4.257943	kAːlaH
-4.257943	kAːlaM
-4.081851	kAːlasya
-3.713874	kAːleː
-4.081851	kAːleːja-
-4.081851	kAːleːna
-4.257943	kAːleːyAː
-4.257943	kAːleːyAːKyAːn
-4.257943	kAːlidAːsAːdayaH
-4.257943	kAːliyaH
-4.081851	kAːliyasya
-4.257943	kAːlpanikasya
-4.081851	kAːma
-4.257943	kAːmaH
-4.257943	kAːmanAːH
-4.257943	kAːmapi
-4.257943	kAːmat-alpAːhAːragRham
-4.257943	kAːmeː
-4.257943	kAːni
-4.081851	kAːni.
-4.081851	kAːnicana
-3.655882	kAːpi
-4.257943	kAːrAːgAːrAːt
-4.257943	kAːrAːgAːram
-4.257943	kAːrAːgAːravAːsinAːM
-3.956912	kAːrAːgAːreː
-4.257943	kAːrAːvAːsamapi
-4.081851	kAːraNAːni
-3.60473	kAːraNAːt
-4.257943	kAːraNIːyAː
-4.257943	kAːraNIːyAː:
-3.713874	kAːraNaM
-3.655882	kAːraNam
-3.713874	kAːraNeːna
-4.257943	kAːraNeːnatAːvadeːva
-4.257943	kAːrayAːnaM
-4.257943	kAːrayAːnacAːlakaH
-4.081851	kAːrayAːnasya
-4.081851	kAːrayAːneːna
-4.257943	kAːrayanti
-4.257943	kAːrayati.
-4.081851	kAːrayitvAː
-4.257943	kAːrcAːlakam
-4.257943	kAːritaH.
-4.257943	kAːritaM
-4.081851	kAːritavAːn
-4.081851	kAːritavatIː
-4.081851	kAːrpAːsasya
-3.860003	kAːrpAːseːna
-4.257943	kAːrtika-mAːsAːsya
-4.257943	kAːrtikamAːsAːsya
-4.257943	kAːrttikamAːsaH
-4.257943	kAːryAːNi
-4.257943	kAːryAːnM
-4.257943	kAːryAːnaM
-4.257943	kAːryAːnasya
-4.257943	kAːryAːneːna
-4.257943	kAːrya
-4.257943	kAːryaH
-3.60473	kAːryaM
-4.257943	kAːryajAːtaM
-4.257943	kAːryakAːlaH
-4.257943	kAːryakaraNaM
-4.257943	kAːryakaraNeː
-4.081851	kAːryakramAːH
-4.257943	kAːryakramAːn
-4.257943	kAːryakrama
-4.257943	kAːryakramaH
-3.956912	kAːryakramaM
-4.257943	kAːryakramadineː
-4.257943	kAːryakramam
-4.257943	kAːryakrameːSu
-3.956912	kAːryam
-4.257943	kAːryamagnOː
-4.257943	kAːryamiti
-4.081851	kAːryeːSu
-4.257943	kAːsti
-4.081851	kAːtaraH
-4.257943	kAːvyakaNVagaNapatiH
-4.257943	kAːzIːhindUːvizvavidyAːlayaH,
-4.257943	kAːzcan
-4.081851	kAːzcana
-4.257943	kAːzcita
-4.257943	kAːzmIːrapradeːzam
-4.081851	kAːzmIːrasya
-4.257943	kAːzyAːM
-4.257943	kEːqala
-4.257943	kIːdRzIː
-3.956912	kIːdRzaM
-4.257943	kIːrtiryasya
-4.257943	kIːxanakamAːdatteː.
-4.081851	kOː.
-4.257943	kOːzalaM
-3.780821	kOːzaleːna
-4.257943	kOːzeːyazAːqikAː,
-4.257943	kRRtaH
-4.257943	kRRtajYatAː
-4.257943	kRRtavAːn
-4.257943	kRRtavAːna
-4.257943	kRSIːvalaH
-4.257943	kRSNEːH
-4.257943	kRSNOː
-4.257943	kRSNa:
-4.257943	kRSNaH
-4.257943	kRSNacandra
-4.081851	kRSNacandraH
-4.081851	kRSNacandrasya
-4.081851	kRSNacandreːNa
-4.257943	kRSNasarpaH
-4.081851	kRSakAːH
-4.081851	kRSeːH
-4.257943	kRSiH
-4.257943	kRSikAːryamapi
-4.257943	kRSikSeːtrAːNi,
-4.257943	kRSikSeːtreːSu
-4.257943	kRSirBavati
-4.257943	kRpAː
-4.257943	kRpAːBilAːSIː.
-4.257943	kRpAːNaH
-4.257943	kRpAːNaM
-4.257943	kRpAːNamAːdAːya
-4.257943	kRpAːluH
-4.081851	kRpaNAːH
-4.257943	kRpaNa
-4.257943	kRpaNaH
-3.956912	kRpayAː
-3.860003	kRtAː
-4.257943	kRtAː.
-3.956912	kRtAːH
-4.257943	kRtAːni
-4.257943	kRtAːrToː
-3.956912	kRta:
-3.780821	kRtaH
-4.257943	kRtaH!
-4.257943	kRtaH,
-3.860003	kRtaM
-4.257943	kRtaM.
-3.558972	kRtam
-3.713874	kRtam.
-4.257943	kRtanAːmaDeːyoː$si
-4.257943	kRtanAːmaDeːyoː$si.rAːjAː-
-4.257943	kRtanAːn
-4.257943	kRtarakSAːmawgalaM
-3.382881	kRtavAːn
-3.956912	kRtavantaH
-4.257943	kRtavantaH-
-3.956912	kRtavatIː
-3.027493	kRteː
-4.257943	kRteː,
-4.257943	kRtiSu
-3.040458	kRtvAː
-4.257943	kRtvAːn
-4.257943	kSAːlitAːni
-4.257943	kSAːmyatu
-4.257943	kSIːNAː
-4.257943	kSIːNaM
-4.257943	kSIːNasvareːNa
-4.257943	kSIːrAːbDOː
-4.257943	kSIːraM
-4.257943	kSIːracaSakaM
-4.257943	kSIːrasya
-4.257943	kSaNAːntareː
-3.860003	kSaNaM
-4.257943	kSaNam
-3.956912	kSaNeː
-4.257943	kSaNeːSu
-4.257943	kSaNeːnEːva
-4.257943	kSamAːM
-4.257943	kSamyatAːM
-4.257943	kSamyatAːm
-4.257943	kSantavyAː
-4.257943	kSantavyaH
-4.257943	kSantuM
-4.257943	kSataH
-4.257943	kSatam
-4.081851	kSateː
-4.257943	kSayamAːyati
-4.257943	kSeːmaM
-4.257943	kSeːpaNiPalakavat
-4.257943	kSeːtrAːNAːM
-4.257943	kSeːtrAːNAːm
-4.257943	kSeːtrAːNi
-3.956912	kSeːtraM
-4.257943	kSeːtraM,kuqumbaM,BAːryAː,putrAːH
-4.257943	kSeːtrabanDaH
-3.780821	kSeːtrabanDeː
-4.257943	kSeːtramagacCat
-4.081851	kSeːtrasya
-4.081851	kSeːtreː
-3.860003	kSeːtreːSu
-4.257943	kSipAːvaH,
-4.257943	kSiptaH.
-4.257943	kSiptavAːn
-4.257943	kSiptavatIː.
-4.257943	kSuDAː-pIːxitaH
-4.257943	kSuDAːAː-pIːxitaH
-4.081851	kSuDAːpIːxitaH
-4.257943	kSudrajantUːnAːMnimajjanasTAːnam
-4.257943	kSudrazazakAːH
-4.257943	kUːpAːnAːM
-4.257943	kUːpAːzca
-4.257943	kUːpaKananaM
-4.257943	kUːpam
-4.257943	kUːpamapazyat
-4.081851	kUːpasya
-3.60473	kUːpeː
-4.081851	kUːrdaneːna
-4.257943	kUːrdanti
-4.257943	kUːrmAːn,
-4.257943	ka
-4.257943	ka.
-4.257943	ka:
-3.51758	kaH
-3.713874	kaH.
-4.257943	kaMjUːsa
-4.257943	kaNVaparyantam
-4.081851	kaNVasTAːm
-3.713874	kaSqaM
-4.081851	kaSqam
-3.780821	kaSqeːna
-3.655882	kaTAː
-4.257943	kaTAː$stu
-4.257943	kaTAː.
-4.257943	kaTAːH
-3.956912	kaTAːM
-3.178761	kaTaM
-4.257943	kaTadiva
-3.445029	kaTam
-4.257943	kaTam.
-4.257943	kaTamahaM
-3.956912	kaTamapi
-4.257943	kaTamasi
-4.257943	kaTameːkAːnvayoː
-4.257943	kaTamiva
-4.257943	kaTamiyAːnAːdaroː
-4.257943	kaTanIːyam
-4.257943	kaTana-mAːtreːNa
-4.081851	kaTanaM
-4.257943	kaTanam
-4.257943	kaTanamAːtreːNa
-4.257943	kaTanasya
-4.257943	kaTayAːmi
-4.257943	kaTaya
-4.257943	kaTayantaH
-4.081851	kaTayanti
-4.257943	kaTayata,ka
-3.780821	kaTayati
-4.081851	kaTayituM
-4.257943	kaTitamasti-
-3.713874	kaTyateː
-4.257943	kaTyateː,
-4.257943	kaTyateː-.
-4.257943	kaVoːraM
-4.257943	kaVoːrabIːjaM
-4.257943	kaVoːreː
-3.655882	kaYcit
-3.860003	kadAː
-4.257943	kadAː-cit
-4.257943	kadAːcid
-4.257943	kadAːcida
-3.178761	kadAːcit
-3.558972	kadAːpi
-4.257943	kadalIːPalAːni
-4.257943	kadalIːdalameːkam
-4.257943	kagalaM
-4.257943	kakSyAːM
-4.257943	kakSyeːseː
-4.257943	kalAːgreː
-4.257943	kalAːkRtyAːni
-4.257943	kalAːmamahoːdayaH
-4.257943	kalAːmamahoːdayasya
-4.257943	kalAːnAːM
-4.257943	kalAːsu
-4.257943	kalAːzrIː
-3.956912	kalAːzrIːH
-4.257943	kalAːzrIːH.
-4.257943	kalAːzriyameːva
-4.257943	kalaH
-4.081851	kalahaH
-4.081851	kalahaM
-4.081851	kalaham
-4.257943	kalahoː
-4.257943	kalakattAːnagarasTiteː
-4.257943	kalawkeːna
-4.257943	kalazasya
-4.081851	kaleːvaraM
-4.257943	kaliwgadeːzeː
-4.257943	kalpaBeːdAːH
-4.257943	kalpalatAː
-4.257943	kalpitAː
-4.257943	kalpitAːni
-3.860003	kalpitaM
-4.257943	kalpitavAːn
-4.081851	kalyAːNAːya
-4.257943	kalyAːNaM
-4.257943	kalyAːNakAːrakam
-4.081851	kamalAː
-4.257943	kamalAːni
-4.081851	kamalam
-4.257943	kamaleː
-3.860003	kamapi
-4.257943	kambukaNVaH,
-4.257943	kampaH
-4.257943	kampamAːnAː
-4.257943	kampamAːnaH
-4.257943	kampamAːnaM
-4.257943	kampamAːneːna
-4.257943	kanaKaleː
-4.257943	kanakaM
-3.956912	kandukaH
-4.257943	kandukaM
-4.257943	kandukeːna
-3.956912	kaniSVAː
-4.257943	kaniSVaH
-4.081851	kaniSVoː
-4.257943	kanyAː
-4.257943	kanyAːH
-4.257943	kanyAːvIːkSaNasamAːroːpasya
-4.257943	kanyAːyAːH
-4.257943	kanyAːyEː
-4.257943	kanyakAːBiH
-4.257943	kanyayAː
-4.257943	kapilaH
-4.257943	kapilamunOː
-4.257943	kapilamuneːH
-3.655882	kapoːtAːH
-4.081851	kapoːtAːn
-4.257943	kapoːtAːnAːM
-4.257943	kapoːtarAːjaH
-3.956912	karNa!
-4.257943	karNa!.
-3.51758	karNaH
-4.081851	karNaH.
-4.257943	karNayoː:
-4.257943	karNoː$haM,
-4.257943	karSaNalAːlaH
-4.257943	karSataH.
-4.257943	karaNIːyAː
-4.257943	karaNIːyAːni
-4.257943	karaNIːyaH
-3.780821	karaNIːyaM
-3.60473	karaNIːyam
-4.257943	karaNIːyam-
-4.081851	karaNIːyam.
-4.257943	karaNIːyamiti
-4.257943	karaNam
-4.257943	karaNiyAː
-4.081851	karamacanda
-4.257943	karamacandagAːnDIː
-4.257943	karanamanoːharaH
-4.257943	karatalareːKAːH
-4.257943	karavastrAːNi
-4.081851	karazulkaM
-4.257943	karazulkam
-4.081851	kardamAːktaM
-4.257943	kardamAːkteː
-4.257943	kardamayuktAːzca.
-4.257943	kargalaM
-4.257943	kariNAːM
-4.257943	kariSyAːmaH
-3.479791	kariSyAːmi
-4.257943	kariSyAːmi.
-4.257943	kariSyataH
-4.081851	kariSyateː
-3.860003	kariSyati
-4.257943	kariSyati,
-4.257943	kariSyati.
-4.257943	karkaqAːdIːn
-4.257943	karmAːNi
-4.257943	karma
-4.257943	karmaNoː
-4.257943	karmaNyavAːDikAːrasteː
-4.257943	karmakarAːNAːM
-4.257943	karmakarIː
-4.257943	karmakaryAːH
-4.257943	karmakaryaH
-4.257943	karmakeːByaH
-4.257943	karmavIːraH
-3.860003	karoːSi
-3.655882	karoːmi
-4.257943	karoːmi,
-3.956912	karoːmi.
-3.21655	karoːti
-4.081851	karoːti,
-3.655882	karoːti.
-3.51758	karoːtu
-4.257943	karoːtu.
-4.257943	kartAː
-4.257943	kartAːraH
-4.081851	kartavyAː
-4.257943	kartavyAːBAːveːna
-4.081851	kartavyaH
-4.257943	kartavyaH,
-4.257943	kartavyaH.
-4.081851	kartavyaM
-4.257943	kartavyaM,
-4.257943	kartavyabudDyAː
-4.081851	kartavyam
-4.257943	kartavyam;
-4.257943	kartavyaniSVayAː
-4.257943	kartiSyati
-4.257943	karttAː
-4.257943	karttavyAːH
-4.081851	karttavyaH
-4.257943	karttavyaM
-3.956912	karttavyam
-4.257943	karttavyaparAːyaNatAːmaDikRtya
-3.558972	kartuM
-3.713874	kartum
-4.257943	kartumAːreːBeː.
-4.257943	kartumanyaTAː
-4.257943	karuNAːkaraH
-4.257943	kasmAːtkoː
-4.257943	kasmEː
-3.956912	kasmiMscid
-4.257943	kasmiMzcid
-3.780821	kasmiMzcit
-4.257943	kasmin
-3.860003	kasmin-cit
-4.257943	kastUːrIː
-4.081851	kasyAːYcit
-4.257943	kasyAːpi
-4.257943	kasyEːcit
-3.655882	kasya
-4.081851	kasyacit
-4.257943	katipayeː
-4.257943	kavacaM
-3.956912	kavitAːM
-4.257943	kayAːpi
-3.51758	kazcana
-4.257943	kazcidapi
-4.257943	kazcidupAːyaH
-3.655882	kazcit
-3.956912	keː
-3.956912	keː.
-4.257943	keːByazcit
-3.558972	keːcana
-3.860003	keːnAːpi
-3.780821	keːna
-4.257943	keːnacit
-4.257943	keːndram
-4.257943	keːndriya-viDAːnasaBAːyAːm
-4.257943	keːsaracAːyam
-4.257943	keːsaratilakam
-4.257943	keːsariNIː
-3.51758	keːvalaM
-4.081851	keːvalam
-4.257943	keːzAːH
-4.257943	keːzavastu
-4.257943	keːzaveːna
-4.257943	keːzeːSu
-2.661345	kiM
-4.257943	kiMciduktam.
-4.257943	kiMtu
-4.257943	kiSkuvyaTayAː
-4.257943	kiYcana
-3.860003	kiYcid
-4.257943	kiYcidUːreː
-4.257943	kiYcidapi
-3.143999	kiYcit
-4.257943	kiYcita
-4.257943	kiYcitakAːla
-4.257943	kiYkartavyatAːmUːXaH
-3.860003	kila
-4.257943	kila.
-3.143999	kim
-4.257943	kim-cit
-3.51758	kim.
-4.257943	kimaBavat
-4.257943	kimaDikeːna,
-4.257943	kimahamapi
-3.161032	kimapi
-3.51758	kimarTaM
-3.713874	kimarTam
-4.257943	kimarTamidAːnIːM
-4.257943	kimasOː
-4.081851	kimasti
-4.257943	kimatra
-4.081851	kimicCanti
-4.257943	kimicCasi,
-4.257943	kimicCasi.
-4.257943	kimidAːnIːM
-4.257943	kimiva
-3.197244	kintu
-4.257943	kintu.
-4.257943	kiranabeːdIː
-4.257943	kircananAːmAː
-4.257943	kiwkartavyatAːmUːXaH
-4.257943	kiyAːn
-4.257943	kiyadasti
-3.956912	kiyat
-4.257943	kiyatkleːzakarIː
-4.257943	kizoːracOːDarIː
-4.257943	kizoːracOːDarIːnAːmakasya
-4.257943	klAːntaH
-4.257943	kleːzaH
-4.257943	kleːzaM
-4.257943	kleːzakaram
-4.257943	kleːzam
-3.479791	koː
-4.257943	koː$ByupAːyaH
-4.257943	koː$ham
-3.354852	koː$pi
-4.257943	koː$pi.
-4.257943	koː$rTaH.
-4.257943	koː$sya
-4.257943	koː$tra
-4.257943	koː$tyarTaM
-3.956912	koːNeː
-4.257943	koːSAːt
-4.257943	koːSeː
-4.257943	koːkaloːkasya,
-4.081851	koːkilAːH
-4.257943	koːkilaH
-4.257943	koːkileː.
-4.257943	koːlAːhalaM
-4.081851	koːlAːhalam
-4.257943	koːlakAːtAː
-4.257943	koːlakAːtAːyAːM
-4.257943	koːlhaqakaraH
-4.257943	koːmalAːwgIː
-4.257943	koːpAːt
-4.257943	koːpa:
-4.257943	koːpeːna
-4.257943	koːpi
-4.257943	koːqaraM
-4.257943	koːqareː
-4.257943	koːqizaH
-4.257943	koːqyaDipatiH
-4.257943	koːriyAːdeːzeː$pi
-4.257943	koːzoː$yaM
-4.081851	krAːntikAːriBiH
-4.257943	krIːNAːti
-4.257943	krIːtavAːn.
-4.257943	krIːtavatya:
-3.956912	krIːtvAː
-4.257943	krIːtvAːsvarNAːmbikAːyEː
-4.257943	krIːxAː
-4.257943	krIːxAː,
-4.081851	krIːxAːdalaM
-4.081851	krIːxAːdalasya
-4.257943	krIːxAːdalataH
-4.257943	krIːxAːdaleːna
-4.257943	krIːxAːdikaM
-4.257943	krIːxAːkRtyasya
-4.257943	krIːxAːkSeːtrAːt
-4.257943	krIːxAːmaH
-4.257943	krIːxAːvaH
-4.257943	krIːxAːyAːH
-4.257943	krIːxa
-4.257943	krIːxadBi:
-3.956912	krIːxakAːH
-4.257943	krIːxakAːn
-4.257943	krIːxakAːnAːm
-4.257943	krIːxakaH
-3.780821	krIːxakeːna
-4.257943	krIːxanakAːnAːM
-4.257943	krIːxanakAːnAːm
-4.257943	krIːxanakaM
-4.257943	krIːxiSyAːmi
-4.257943	krIːxiSyAːvaH
-4.081851	krUːrazAːsanAːt
-3.713874	kramazaH
-4.081851	krameːNa
-4.257943	krandanamakaroːt
-4.257943	krayaNaM
-4.257943	krayaNam
-4.257943	kreːSyAːmi
-4.257943	kreːtuM
-4.257943	krixAːcakreː
-4.257943	krixAːcakriNaH
-4.257943	krixAːrawgam
-4.257943	krixan
-4.257943	kriyAːsu
-3.60473	kriyateː
-4.257943	kroːDasamoː
-3.860003	kroːDeːna
-4.081851	kroːxeː
-3.956912	kroːziyAː
-4.257943	kroːziyAː-
-4.257943	kroːziyAːdeːzasya
-4.257943	krudDAːsteː
-3.713874	krudDaH
-4.257943	krudDoː
-4.081851	krudDoː$Bavat
-4.257943	kuNxalAːByAːM
-4.257943	kuNxalam,AːKaNxaladizaH
-4.257943	kuYcikAːM
-4.257943	kujanti
-4.257943	kukkuqAːH
-4.081851	kukkura
-4.257943	kukkuraH
-4.081851	kukkuraM
-4.257943	kukkuram
-4.257943	kulIːnoː
-4.257943	kulam.
-4.257943	kulamUːlaM
-4.257943	kumAːrAːn
-4.257943	kumBapalAːzamAːrUːhya
-4.257943	kupitAː
-4.257943	kuqIːrAːNi
-4.257943	kuqIːrAːt
-4.257943	kuqIːraM
-4.257943	kuqilAː
-4.081851	kuqumbajanAːH
-4.257943	kuqumbakaM
-4.257943	kuqumbeː
-4.257943	kuqumbinyAː
-4.257943	kur
-4.257943	kurUː
-3.956912	kurmaH
-3.655882	kuru
-4.257943	kuru,
-4.257943	kuruTa.
-4.257943	kuruta
-4.257943	kurutaH
-4.081851	kurutaH.
-3.860003	kurvan
-4.257943	kurvantOːH
-4.257943	kurvantaH
-3.143999	kurvanti
-4.257943	kurvanti,
-4.081851	kurvanti.
-4.257943	kurvat
-4.257943	kurvatAː
-4.257943	kurvatIː
-4.257943	kurvata:
-4.257943	kurvatya:
-4.257943	kuryAːdadyEːva
-4.257943	kuryAːma
-4.081851	kuryAːt
-4.257943	kuryAːtkAːtaroː
-4.257943	kuryuH
-4.257943	kusumAːkaraH
-4.257943	kusumAːni
-4.257943	kutUːhaleːna
-3.956912	kuta:
-3.956912	kutaH
-3.860003	kutoː
-4.081851	kutrAːpi
-3.197244	kutra
-4.081851	kutracit
-4.257943	kuyuktiM
-4.257943	kuzalAːH
-4.257943	kuzalamaM
-4.257943	kuzalamasti
-4.257943	kuzalatayAː
-4.081851	kvIːnsa
-4.257943	kva
-4.081851	lAːBAːnvitAːH
-4.257943	lAːBAːya
-4.257943	lAːBaH
-4.257943	lAːBadAːyakoː$sti
-4.257943	lAːhoːra
-4.257943	lAːhoːranagareː
-4.081851	lAːlAːlAːjapatarAːya-
-4.257943	lIːlayAː
-3.956912	laByateː
-4.257943	laByateː.
-4.257943	laByeːt
-4.257943	laGu
-4.257943	laGuH.
-4.257943	laGubAːlakaH
-4.257943	laGukuqIːraM
-4.257943	laGuvAːtayAːnaM
-4.257943	laGuvAːtayAːneːna
-4.257943	laKanaUːnagaraM
-4.257943	laKanaUːnagareː
-3.956912	labDaH
-4.257943	labDapratiSVoː$Bavat
-3.956912	labDavAːn
-4.081851	labDavatIː
-4.257943	labDeː$vasareː
-4.257943	labDuM
-3.780821	labDvAː
-4.257943	labDvAːn
-4.081851	laddAːKa
-4.257943	lagata:
-4.257943	lajjAː
-4.257943	lajjAːm
-4.257943	lajjayAː
-4.257943	lajjitaH
-4.081851	lakSAːNi
-4.257943	lakSaM
-4.257943	lakSaNaM
-4.257943	lakSaNasya
-4.257943	lakSitAː
-4.257943	lakSmIːM
-4.257943	lakSmIːm
-4.257943	lakSmaNaH
-3.860003	lakSmaNeːna
-3.956912	lakSyaM
-4.257943	lakSyateː
-4.257943	lalAːqeː
-4.257943	lalambeː
-4.257943	lambAː:
-4.257943	lambAːyamAːnaH
-4.257943	lambamAːnOː
-3.956912	lambamAːnaH
-4.257943	lambateː
-4.257943	landananagarasTeː
-4.257943	lan~gaxAː
-3.60473	latAː
-4.257943	latAː-
-4.257943	latAːmapi
-4.257943	latAːsu
-4.257943	lawGayateː
-4.257943	lawGayati
-4.257943	lawkAːM
-4.257943	lawkAːyAːH
-4.257943	lawkAːyAːM
-4.081851	leːKAːn
-4.257943	leːKAːnAːM
-4.257943	leːKaH
-4.257943	leːKakAːya
-4.081851	leːKitum
-4.257943	leːKitumAːdizat
-4.257943	liKanti
-4.257943	liKati,
-4.257943	liKitAːH
-4.257943	liKitAːn
-4.081851	liKitAːni
-4.081851	liKitaM
-4.257943	liKitam
-4.081851	liKitavAːn
-4.257943	liKitavAːna
-4.257943	liKitvAː
-4.257943	lieː
-4.257943	liliyana-Turam-nAːmakeːna
-4.257943	limpanti
-4.257943	liptaH
-4.257943	loːBasamoːvyAːDiH
-4.257943	loːBeːna
-4.257943	loːcaneː.
-4.257943	loːhadaNxaM
-4.257943	loːhadaNxam
-4.257943	loːhapeːqikAː
-4.257943	loːkAː
-4.257943	loːkAːNAːM
-4.257943	loːkAːcAːraM
-4.257943	loːkAːn
-4.257943	loːkAːnAːM
-4.257943	loːkAːpavAːdasya
-4.257943	loːkaM
-4.257943	loːkakalyAːNAːya
-4.257943	loːkam
-4.257943	loːkamAːnyaH
-4.257943	loːkapriyAː
-4.257943	loːkaraYjanaH
-4.257943	loːkayAːnaM
-4.257943	loːkayAːneːna
-4.257943	loːkazravaNAːya.
-3.956912	loːkeː
-4.257943	loːkeː!
-3.3037	mAː
-4.257943	mAːDavazca
-4.257943	mAːDavoː
-3.713874	mAːDurIː
-4.257943	mAːDurIːM
-4.257943	mAːDuryAː
-4.257943	mAːDuryAːH
-3.860003	mAːDyameːna
-4.257943	mAːGamAːsasya
-3.236753	mAːM
-4.257943	mAːMsapriyAːH
-4.257943	mAːarjAːraM
-3.956912	mAːdRzasya
-4.257943	mAːdakadravyAːNAːM
-4.081851	mAːlAːBiH
-4.081851	mAːlAːH
-3.60473	mAːm
-4.257943	mAːmayaM
-4.257943	mAːmeːkAːnteː
-4.257943	mAːmupAːgamat.
-4.257943	mAːn
-4.257943	mAːnAːpamAːnayoːH
-4.257943	mAːnasaroːvara-amaranAːTa-badrIːnAːTa-keːdAːranAːTa-haridvAːra-praBRtIːni
-4.257943	mAːnasaroːvara-amaranAːTa-badrIːnAːTa-keːdAːranAːTa-haridvAːrapraBRtIːni
-4.257943	mAːnavAːnAːM
-4.257943	mAːnavIːyAː
-4.257943	mAːnavIːyadRSqyAː
-4.081851	mAːnavIːyamUːlyaboːDasya
-4.081851	mAːnavaH
-4.257943	mAːnavaseːvAː
-4.257943	mAːnavasya
-3.860003	mAːnavatAːyAːH
-4.257943	mAːnavoːdarasTaH
-4.257943	mAːrIːceːna
-4.257943	mAːrayiSyAːmi
-4.081851	mAːrgAːH
-3.860003	mAːrgaH
-4.081851	mAːrgaM
-4.257943	mAːrgadarzinIː
-4.257943	mAːrgamaDyeː
-3.412844	mAːrgeː
-4.257943	mAːritaH
-4.257943	mAːritavAːn
-4.257943	mAːritvAːntasya
-3.860003	mAːrjAːrAːH
-4.257943	mAːrjAːrAːNAːM
-4.257943	mAːrjAːrAːn
-4.257943	mAːrjAːrEːH
-3.956912	mAːrjAːra
-3.713874	mAːrjAːraH
-4.081851	mAːrjAːraM
-4.257943	mAːrjAːrakAːryaM
-4.257943	mAːrjAːramastaka
-4.257943	mAːrjAːraviSayeː
-4.257943	mAːrjAːroː$vadat-ahaM
-4.257943	mAːrjayantIː
-4.257943	mAːrjayituM
-4.257943	mAːrkaNxeːyasya
-4.257943	mAːrutikAːrayAːnaM
-4.257943	mAːsEːH
-4.257943	mAːsOː
-4.081851	mAːsaM
-4.257943	mAːsadvayaparyantam
-4.081851	mAːsasya
-4.257943	mAːsataH
-4.081851	mAːseː
-4.257943	mAːsqaraiti
-3.780821	mAːstu
-4.257943	mAːstu.
-3.161032	mAːtAː
-4.081851	mAːtAː.
-4.257943	mAːtAːpitarOː
-4.257943	mAːtAːsmi
-4.257943	mAːtRhIːnaM
-4.257943	mAːtRpitRByAːM
-4.257943	mAːtRseːvAːyEː
-4.257943	mAːtRtulyAːmavagamiSyAːmi
-4.257943	mAːtRvatsalaH
-3.956912	mAːtaH
-4.257943	mAːtarOː!
-4.081851	mAːtaraH
-3.956912	mAːtaraM
-4.081851	mAːtaram
-4.257943	mAːtaramaBinandiSyasi
-4.257943	mAːtaramupeːtya
-4.257943	mAːtrAː
-4.257943	mAːtsaryam,
-4.081851	mAːtu:
-3.655882	mAːtuH
-4.257943	mAːturAːKyAː
-4.257943	mAːtuzca
-4.257943	mAːwgalyaM
-4.257943	mAːwgalyavastrAːdiBi:
-4.257943	mEːgseːseː-nAːmakeːna
-4.257943	mEːlAːrayya
-4.081851	mEːlAːrayya:
-4.081851	mEːlAːrayyaH
-4.257943	mEːlAːrayyaH.
-4.257943	mEːlAːrayyasteː
-4.257943	mEːlAːrayyastu
-3.713874	mEːlAːrayyasya
-4.257943	mIːnAːH
-4.257943	mIːnAːn
-4.257943	mIːnOː
-4.257943	mIːnasya
-4.257943	mIːrAː-
-4.257943	mIːrAː-mayAː
-3.956912	mOːnaM
-3.860003	mOːnam
-4.257943	mOːnameːva
-4.257943	mOːneːna
-4.081851	mRSAː
-4.257943	mRSqAːnnaBoːjanam
-4.081851	mRdGaqaH
-4.081851	mRdGaqeː
-4.257943	mRdumRdulAːM
-4.257943	mRgAːtsiMhaH
-4.081851	mRgaH
-4.257943	mRgaM
-4.257943	mRgam,
-4.257943	mRgarAːja
-4.081851	mRgeːndra
-4.257943	mRgeːndram
-4.257943	mRnmayUːrahastAː.
-3.713874	mRtaH
-4.257943	mRtaM
-4.257943	mRtabAːlakasya
-4.081851	mRtakasya
-4.257943	mRtaprAːyAː
-4.257943	mRtasiMhasya
-4.257943	mRtazca
-4.257943	mRttikAː
-4.257943	mRttikAːM
-4.257943	mRttikAːm
-4.257943	mRttikAːmayUːraH
-4.257943	mRttikAːmayUːrasya
-4.257943	mRttikAːyAːH
-4.081851	mRttikayAː
-3.956912	mRtyoːH
-4.257943	mRtyuBayaM
-4.257943	mRtyuBayeːna
-4.257943	mRtyuH
-3.860003	mRtyuM
-4.257943	mRtyumaBinIːya
-4.257943	mRtyumuKeː
-4.257943	mRtyunAː
-4.081851	mUːSakAːH
-4.081851	mUːSakAːNAːm
-3.860003	mUːSakaH
-4.257943	mUːSakapriyAːH
-4.257943	mUːSakoː
-3.956912	mUːXaH
-4.081851	mUːXoː
-4.257943	mUːkOː
-4.257943	mUːkaM
-4.257943	mUːlameːva
-4.257943	mUːlarUːpeːNa
-4.081851	mUːlazaMkaraH
-3.780821	mUːlazaMkarasya
-4.081851	mUːlazawkaraH
-3.780821	mUːlazawkarasya
-4.257943	mUːlyapUːraNAːya
-4.257943	mUːlyeːna
-4.257943	mUːrDani.
-4.257943	mUːrKAːNAːm
-4.257943	mUːrKa
-4.257943	mUːrKa!
-4.081851	mUːrKaH
-4.257943	mUːrKasya
-4.257943	mUːrcCAːM
-4.257943	maDukarAːH
-4.257943	maDumAːsaH
-4.257943	maDunAːmakaM
-4.081851	maDurAːNi
-4.257943	maDurAːNi.
-4.257943	maDuraBAːSIː
-4.257943	maDuraH
-4.257943	maDuraKaNxameːkaM
-3.956912	maDuraM
-4.257943	maDuraM,
-4.257943	maDyAːhnaBoːjanamapi
-4.257943	maDyAːhnaH
-4.257943	maDyAːhneː
-4.257943	maDyAːntaraM
-4.257943	maDyaBAːgaH
-4.257943	maDyamantrAːlayeː
-4.257943	maDyamasya
-3.51758	maDyeː
-4.257943	maIːmAːsasya
-4.257943	maMgalakAːryeːSu
-4.257943	maNiH
-4.257943	maNibanDeː
-4.257943	maNinAː
-4.257943	maNxUːkAːn
-4.257943	maNxUːkAːzca
-4.081851	maNxUːkaH
-4.257943	maNxUːkoː$vadat
-4.257943	maNxUːkoː$vadat-Boː
-4.257943	maTurAː-nagareː
-4.257943	maTurAːnagareː
-4.257943	maYjarIːBiH
-4.257943	maYjaryaH
-4.257943	macCiroː
-4.257943	madIːyeː
-4.257943	mada-unmattaH
-4.257943	madirAːM
-4.257943	madoːnmataH
-4.257943	madrAːsa
-4.257943	madrapurIː-
-4.257943	madrapurIːtaH
-4.257943	maduraIːnagareː
-4.257943	madyAːhnanidrAːM
-4.257943	magaDarAːjAːya
-3.956912	magaDarAːjaH
-4.257943	magaDarAːjaM
-4.257943	magatAː
-4.081851	magnaH
-4.257943	mahAː-jalAːSayeːSu
-4.081851	mahAːBAːratam,
-4.257943	mahAːBAːrateː
-4.257943	mahAːDIːkSakapadeː
-4.257943	mahAːDanikaH
-4.081851	mahAːdAːnIː
-4.257943	mahAːjalAːSayeːSu
-4.257943	mahAːkavayaH
-4.257943	mahAːmahiSam
-3.445029	mahAːn
-4.257943	mahAːnbaliSVoː
-4.081851	mahAːntaM
-3.956912	mahAːntam
-4.257943	mahAːpAːtreː
-4.257943	mahAːparAːDaH
-4.257943	mahAːpraBoː
-4.257943	mahAːpurUːSAːNAːM
-4.257943	mahAːpurUːSAːtu
-4.257943	mahAːpurUːSaH
-4.257943	mahAːpurUːSasya
-4.257943	mahAːpuruSAːH
-4.081851	mahAːpuruSaH
-4.081851	mahAːpuruSasya
-4.081851	mahAːrAːja
-4.081851	mahAːrAːja!
-4.257943	mahAːrAːja,
-4.257943	mahAːrAːja:
-3.479791	mahAːrAːjaH
-4.257943	mahAːrAːjaM
-4.257943	mahAːrAːjam
-3.956912	mahAːrAːjasya
-4.257943	mahAːrAːjeːna
-4.257943	mahAːsamAːDOː
-4.257943	mahAːsamAːDiM
-4.081851	mahAːsarIːsRpAːn
-4.257943	mahAːtapAːH
-4.081851	mahAːtapasaH
-3.860003	mahAːtmAː
-4.257943	mahAːtmanAː
-4.257943	mahAːtmanaH
-4.257943	mahAːvIːrasya
-4.257943	mahAːvanam
-4.257943	mahAːvidyAːlayAːsya
-4.257943	mahAːvidyAːlayIːyaH
-4.081851	mahAːvidyAːlaya
-4.081851	mahAːvidyAːlayaH
-4.257943	mahAːvidyAːlayapaVanakAːleː
-3.956912	mahAːvidyAːlayasya
-3.60473	mahAːvidyAːlayeː
-4.081851	mahAːvidyAːlayeːna
-3.956912	mahAːzaya
-4.081851	maharSeːH
-4.257943	maharSi-dayAːnandasya
-3.558972	maharSiH
-4.257943	maharSidayAːnandasya
-4.257943	maharSiputra
-4.257943	maharSiramaNa
-4.257943	maharSiramaNaH
-3.956912	maharSiramaNasya
-3.780821	mahat
-3.558972	mahatAː
-3.860003	mahatIː
-4.257943	mahatIːM
-4.257943	mahataH
-4.081851	mahattAːM
-4.257943	mahattAːm
-4.257943	mahattapaH
-3.956912	mahattarAːM
-4.081851	mahattaraM
-3.956912	mahattvaM
-4.257943	mahattvam
-4.257943	mahattvamasti
-4.257943	mahattvapUːrNAː
